{"format": "neuroforge-network-v1", "task": "classification", "input_size": 27, "hidden_sizes": [32, 16], "output_size": 7, "activation": "relu", "layers": [{"input_size": 27, "output_size": 32, "weights": [[-1.1485600695566354, -0.2550208048333453, 0.4112824542127528, -1.0104598946727803, 0.21940742950064707, -0.05251969556687956, -0.5863850849441237, 0.7708468900984193, 0.46104050780578804, -0.7383344373978932, 0.2273111018004588, 0.32269344638936087, 0.7273140902599801, 0.12823231775080082, 0.4711739951916141, 1.3773636039058699, 0.5225162392602721, 1.0160610001441233, 0.045963806308679876, 0.5362775351616318, 0.01617747717260958, -0.7128361613513391, -0.23008057150815028, -0.22259724749806722, -0.16991404169685564, 1.1846156780890051, -0.3213817751903887], [-0.3017056738859266, 1.1082089444272323, 0.47242192320386833, 1.1320451926920647, -0.017379302938745306, -0.3112667682911101, 0.43532418780942156, -0.19730095551049423, -0.6767717730071019, 0.06706424312763268, 0.0246490849907734, 0.3220301201602401, 0.19637660210060692, -1.0409287237425677, 0.14038281619048248, -0.5378413917804198, -0.4704091706669704, -0.2313338006132367, 0.011323646348874585, -0.41085842537053113, -0.6957511937241402, 0.6428863893263043, -0.3575058936175048, 0.2122585614094733, 0.31762350523877403, 1.001337476892739, -0.41221056307427145], [-0.05982600661257827, 0.08673460119635645, -0.28078652321332503, -0.029604478795294927, -0.034960595431568056, -0.2505982365247156, -0.03178123447315937, 0.005753236757183048, -0.1229636917359236, -0.9317351691628415, 0.637870893836884, 0.6184353015862094, -0.02799077064353165, 0.1724296060336765, 0.49593581420602056, 0.9589003681678973, 0.26767976100894675, 0.6305859670500216, 0.0962670698649724, 0.4615902754873851, -0.3027284478929176, -0.05436259204562997, 0.22729125544535347, 0.15724613932835785, -0.32663980680830657, 0.8436934247044351, -0.6700831998562544], [-0.3627664512073989, -0.9071058064536933, -0.05018858430031168, 0.16951650993877346, 0.6325926741782257, -0.3290688035155652, 0.16287843619615203, -0.020284358344475385, -0.4185392251722588, -0.5542819378405761, 0.8070113157654177, 0.24399051431522548, 0.23402783158572038, -0.8094228958914504, 0.055602492671966895, 0.7994415535324332, 0.12122194050852896, 1.567178218239104, -0.14929721109279454, 0.11063054478093054, 0.1946415350251987, -0.4866292228092972, 0.23462188488658844, 0.40043611802041906, -0.6433180117610727, 0.4755833251948295, 0.27458862029673836], [-0.5572311898962518, 0.32740380704970784, 0.22023092115617238, 0.5327176403351359, -0.015120721140918829, -0.26390246671801654, 0.14830729005697382, 0.7394041842816703, 0.3004592573865593, 1.3288208101206376, -1.2778264587740364, -0.5941276697319885, -0.3543132527309262, -0.6590304462562669, -0.017889299967074373, 0.1256371090475214, 0.1960676081275536, -0.7983192318743021, 0.3487875849537733, 0.13838424366550955, -0.21354589958157053, 0.01718341488800854, -0.4355460955498999, -0.06924738533082637, -0.2073295326549362, -1.0089676725774923, 0.6100680179477278], [-0.23777998783593268, 0.1606907838809954, -0.27979583411809555, -0.38229226541741995, -0.26197905061089166, 0.09404076423379469, -0.3444846911572986, -0.14203175656495748, 0.3426769907855646, -0.07243440914406478, -0.3418435627427161, 0.4486886736091039, 0.024657878460287115, 0.5564880763182701, -0.2719034581823752, 0.7113890460228627, -0.2671236952929831, -0.47593342204570954, 0.11421436488784716, 0.018379666935052965, 0.07022491311638188, 0.06876524106693198, 0.1965572191524412, 0.3744697631144253, -0.12130032772787716, -0.2825777325317125, -0.09814861161016482], [0.13215496741539454, 0.17402882451144086, -0.148734465301748, -0.10678984000562512, -0.06855584185924152, 0.22054955493324777, -0.6894370687903493, 0.8360420212281483, 0.40589706846718704, -0.229167259252474, -0.27543461090365495, 0.4631478723285655, 0.20130843964661777, -0.7649119578803256, 0.489829500396175, 0.4827577867300897, 0.49413170436243836, 0.08558188996917554, -0.10255561909559331, -0.05524815740240082, 0.21853778316109193, -0.29716216824377806, 0.07810697557579668, 0.02271333067671496, 0.0222401326303389, -0.2415797760426161, -0.16424181633011614], [0.25559605032820343, 0.3433271486009371, 0.3197160615484622, -0.2836936067195597, 0.6215179279687109, 0.07350857831346959, 0.47500316708270557, -0.31305992021119394, -0.10080782934501617, -0.061535166292442746, -1.5611876915221716, 0.15903042224324612, -0.30203537069096564, -0.04813224398608416, -0.22891559794411825, -0.0036705077236803335, 0.14107156501421864, 0.07048064069722948, -0.3178796763382297, -0.20010188937250126, -0.3469593321397049, 0.2822583867657593, 0.113925116438385, -0.18690762828869495, 0.34586648800402375, -1.6556767306504094, -0.23557323809606306], [0.4089657775663002, -0.02585650981710063, -0.200491365234324, 0.12211996477357777, 0.26549135704142973, 0.46895276973758504, -0.4660704349775771, -0.0980949290693914, 0.2510957621798082, -0.3278831473136125, 0.39701187936311544, -0.1889527425009382, 0.02699282557448129, -0.041360000396367134, 0.26464194032763905, 0.027928846150329836, 1.0556921215731527, 0.1677136726526827, 0.3126677215801367, -0.03164646088376693, -0.01194237519688327, -0.1362816998153837, -0.12612279580008132, -0.23479716509649431, -0.1833887713340029, -0.24154224411536102, -0.20476610453783864], [1.431809095379744, -0.2052463535666361, -0.5246856782883109, 0.48059463118423257, -0.024714451330070022, 0.0021415788760778664, 0.0922736203889602, 0.5639825362652855, -0.09696587464366997, -0.0756227693374715, -0.13293350264792492, 0.11439335576519719, -0.053971469301672355, -0.21251330146941483, 0.10954279119988583, 0.2663073315371902, -0.7931842866131599, 0.37095875674922923, 0.446400642873214, 0.023038064847148182, 0.33669204729510266, 0.170048792775151, -0.060848730253461554, 0.365041062891203, 0.7204487087914605, 0.031025917409310558, 0.21097230495224162], [0.08413171604279124, 0.21544711730430255, 0.24000650248788005, -0.28651410568911384, 0.32153759103050145, 0.24679361995869042, -0.2917546505079895, -0.06703446474447558, -0.38926120934806313, -0.06793091232426449, 0.1011455989305004, -0.3066450486041865, -0.20120689898760089, -0.22981843691098083, -0.1796902458893223, -0.20142390664212476, -0.2886874858472379, 0.16729499778621562, -0.058820894282873314, -0.2166566421493389, 0.28227765110245134, -0.15482023276681983, 0.25692976165968223, -0.3284960940649743, 0.38934127214047254, -0.11488792016800779, -0.2488941486568404], [-0.02396308541973237, -0.32558553216312824, -0.29577319316801454, 0.16245921327101573, -0.14980914641146145, 0.06277017468249274, 0.14870185295767074, 0.07644962335334142, 0.05836545856001384, 0.14937714667481086, 0.047528744537316744, 0.30385467123848653, 0.3198938381358013, -0.24159013476597022, -0.39658267440329437, 0.7625120235697791, -0.3206854615506359, 0.11956341861302437, -0.4226305821718047, -0.11469641262783, 0.6712171415410835, -0.5780441160423309, 0.03141718953211921, 0.06413555759643463, -0.28607150765960493, -0.3068294542386402, -0.06343579791118692], [0.02056926530563448, 0.17916064917218394, -0.5275061490584483, -1.5831951417369678, 0.6078843459068628, 0.24644729412367755, 0.168697769523036, -0.16715704443132848, -0.1614497431299885, 0.2845432988775972, -0.3174431836446043, -0.2961124504275894, 0.15742552264549906, 0.20202606671638637, -0.5168727810822139, 0.06411863901526749, 0.15994581966717406, -0.3571135923371606, -0.3491473895429388, 0.5162527332252119, 0.3455471190773958, -0.8820111189984589, -0.22391667257227188, -0.05445224702473672, -0.21419849433973503, -0.16157262797798208, -0.1271706608218602], [0.26110883095584525, -0.33578410401685455, 0.11750846196468835, -0.4410235433563889, 0.5432799819455802, 0.3980401208725768, -0.3381518712892276, 0.08063164403650896, 0.46461562465872386, 0.3616490996896151, 0.37749054927535763, -0.1732118493615861, -0.04439855950179979, -0.3444532497217585, -0.19422971619061238, -0.3900998887434437, -0.22148735500924407, -0.021127402384907727, 0.21211014575449766, 0.2973911726683808, -0.13221308294315376, -0.39745261937011395, -0.16210364269674488, 0.27528834530518326, 0.19121431881836704, 0.7479094393946393, 0.14654777907911068], [0.012621351454991665, 0.265888599450601, 0.15645176375584494, -0.2832567950471283, -0.2587438557699866, 0.05002055100093, -1.6902747487569598, 0.4484016023656091, 0.5156773636844741, 0.16232533278583036, 0.08018553519169347, -0.04674366706662574, -0.1089585905748534, 0.3134781453282374, 0.3808503408234236, 0.1963330913108881, -0.19905279128220693, 0.2843210189666933, -0.45463060503701064, 0.9618100961595625, -0.03515977888152882, -0.35198627219123957, -0.2551794719580584, -0.20402645538870823, -0.43058831532711833, 0.17782508543864745, 0.1693445250549628], [-0.050013176363487774, 0.25224263702081834, -0.10106927979230189, -0.15186112971246313, 0.058566762803636534, -0.09873967498645553, -0.38337658553936227, 0.02278019305668521, 0.3359435744039122, 0.06922881941454342, -0.31767834590614463, -0.1960703112464171, -0.4279618860102863, -0.10193459053095799, -0.21827014352678328, 0.0913498401136704, 0.09096166605624982, 0.365639841998511, -0.1738452198971405, -0.5647537523777221, 0.5310337194382522, 0.2595218179130202, -0.09285747016476392, 0.146874737120485, -0.24338342314223582, -0.03463203746840931, 0.1947983758491873], [0.06706395495220767, -0.14981276534087715, -0.015695001561476504, -0.0743381455250314, 0.011201768663783456, 0.2699669266990596, 0.8904367740284411, -0.01549864592921114, -0.8279485293783563, 0.13205469961082344, -0.490037165575156, -0.19329241851467685, 0.40402727357772644, 0.3570879058352268, 0.576739363386668, -0.2972133083708355, 0.08681315354788074, -0.15988616815548706, -0.3539939125227128, 0.41071373456629134, 0.02724500556377219, -0.20957606812240417, -0.5411884553809945, -0.08125415275081961, 0.315619251910443, 0.5166096294926581, 0.16436077025283868], [-0.06028383205137841, -0.13871934081258555, -0.11717977714506142, 0.2172940235325281, -0.4432477165478281, -0.17984828858978547, -0.3040834053910199, 0.2996479369651698, 0.014009734570575926, -0.1881369981360582, 0.21979760334453216, 0.5038906251778915, 0.23929516703983789, -0.20560696185795801, -0.10360269224298628, 0.18361430675363372, -0.5989214271469537, -0.3245117962129955, -0.23870013533577256, 0.1223882717616339, -0.21540509440777234, -0.08502260710016256, -0.035401874778202815, 0.09310802103587085, -0.3194865447937592, -0.6116281833878235, -0.577071841438257], [-0.47625980332548046, 0.1278602447007676, 0.10719374294882852, 0.1984385717158043, -0.5740005935937614, 0.10887829372973565, -0.09389242189306762, 0.028250396093901297, 0.04765405579413876, -1.0626214268025675, 0.13616303881634245, 0.5794873610350513, 0.5003301495497579, 0.3827648019302632, 0.14754934064324246, -0.23708812678742924, -0.375459853643416, -0.04011430739322396, 0.47450804520169115, -0.5030917466735572, -0.11370047421389279, 0.46494844354626075, 0.138750807292845, -0.5282080473226068, -0.5478923082892827, 1.3250402206195246, -0.13316725205921082], [-0.2281492769540249, -0.38353017705887466, -0.15051201050649965, -0.04242892745105444, -0.5074674835724056, 0.013978637067636678, -0.2675122740309834, 0.021113405980939075, -0.2888835526206647, -0.08601570579228977, 0.07312925452972975, -0.18558048947434466, -0.16635432171368542, 0.27465765098471523, 0.17774363767943885, -0.2454337997568602, 0.07078637363457907, -0.3235858687906687, -0.18498525636960847, -0.843775069040281, -0.14382352405402354, 0.1409654843186178, -0.1304443157290007, 0.1406463398024078, -0.14603923320150008, 0.062279886655115586, -0.03614279878699104], [0.005464782358534987, 0.5876932242112194, -0.0009475664828854631, -2.6198856165637108, 0.5093525540061326, 0.6368783733467389, -0.15343723574649115, -0.11267721671796141, -0.03209488264660292, 0.7493881958153242, -0.10312589028103783, -0.4983833046523602, 0.08631935395817499, 0.2288215998024705, -0.6418339302830327, 0.5164641491740216, -0.2892585846763254, 0.26137944674399693, 0.2031698454487672, -0.30829168099366916, -0.3133067841193945, -0.6967339402960442, 0.07031683684631392, 0.2751954025919379, -0.1736323712596465, 0.2583880590389244, -0.6449945622776135], [-0.21608415598970837, 0.19088208864996292, -0.1502902153757673, -0.08887746686464411, -0.2913150133818172, 0.0033673628420656655, -0.4694951552095842, 0.543768094848172, -0.017518794424378075, -0.3852745042847889, -0.3166226891557136, 0.2687698830224955, 0.513890845732942, 0.03729776352679532, 0.13998800757058813, -0.0721502481735768, -0.04156686724557255, 0.32402486407333436, -0.0005311414605735562, -0.532441563560025, 1.0053720837101243, -0.5438221275370915, -0.1899717518187821, -0.3070484564051844, 0.0516572946127922, 0.04006397901540043, 0.634568784999882], [0.8525362415933481, -0.30771738038725055, -0.14749728998646902, 0.007465044518738365, 0.21081841529473838, 0.1631250119159804, -0.5258909639618417, 0.48758733544152794, 0.24152628255649, 0.29708648597907594, -0.03724626399777484, -0.6138704047914746, -0.12067568718307928, -0.14858067528954835, 0.3019372814570941, 0.10611471168016912, 0.022178575514212123, -0.5862590653898061, -0.08189514582696143, -0.21327652872767178, 0.2879377286167908, 0.2076042060691941, -0.01085496011946127, -0.0884085903729628, 0.149542374071494, 0.8438028515447774, 0.05802073804260749], [0.24570619169317828, -0.12351714175636515, 0.26491196064534356, -0.317928447294347, 0.1926626605324917, 0.5343357231314244, -0.009716174920029873, -0.2849487528631717, -0.2654033645021217, 0.5627917321268243, 0.3203329263067725, -0.1023333867566675, 0.7930081754800036, 0.1215141135045459, 0.6230099220212165, 1.3121666335565203, -0.016602032376060564, 0.04032328581509255, -0.1432149224686613, 0.35183300427053477, -0.18965981552492983, -0.1693989301918516, 0.08345868825522669, -0.6272342853369407, 0.06022293192143565, 0.10858861083351529, -0.28477884267300935], [0.13777660385924156, -0.13355829437362224, -0.20618587853115905, 0.24659851184573742, -0.09793319948639924, 0.12345799077503347, -0.34431116041401894, 0.705009655892552, 0.40547309845915963, 0.4652953076525293, -0.05549146473233383, 0.44096026772360164, -0.09426898630618055, 0.11511834983883412, 1.119063966966516, 2.078876334744554, 0.33073123919933267, 0.44401793458380506, -0.4097033886585629, -0.1873542338865766, -0.5085857006080179, -0.23576936954245228, -0.3917507100043398, 0.31392652907859825, 0.3480060150613284, -1.154169772722799, 0.07345676643622315], [0.24492377519606964, -0.1359229137139336, -0.5474000762933995, -0.09123772247893878, 0.6874529148666527, -0.013749602909017297, -0.10614022837949384, 0.29870220343279535, -0.019649686639219743, 0.6465967452327206, 1.142710977852504, -0.15931148218238841, -0.3280685273687983, -0.08122506697044327, -0.10144084245279343, 0.23875088709029935, -1.2063030505854184, 0.0025498969071781614, 0.31620621036833424, 0.0732722958230985, 0.15042259040268527, 0.05987236104195263, 0.30504767663363574, 0.07753287114196203, -0.4835329585840805, 1.0325323360328142, 0.32237144672759666], [0.34210648635070806, -0.38670328938494947, 0.10754039301022601, 0.2693583074465845, -0.5369050793837767, 0.22927517309723858, 0.2284050721234069, -0.24128232212758854, -0.015626591813026242, 1.5423335680599757, -0.4673423667382316, 0.4127636241701429, -0.18412525758121234, 0.20345603062843753, -0.301051965606803, -0.426164841993687, -0.8129437558904543, -0.18144628558807108, 0.37256065748978745, -0.5496639712429512, 0.37723643033537335, 0.24224673838967473, 0.28305336914237583, 0.38287165153471037, 0.05558292334553699, -1.1290205028944555, 0.18751099134666452], [-0.3207929465307447, 0.015675137830778, 0.09765100784094237, 0.38599007839924154, -0.04094710740247559, -0.025611492285261727, -0.23505122786990995, 0.11204913667609262, -0.32545629127039766, 0.22994616077738386, 0.0686495765934335, 0.40657762993894425, -0.13612177235903503, 0.010554598759737717, 0.07329815570099309, 0.10785816808990845, -0.40862060150509016, -0.1497935862760642, 0.025424350670314618, 0.1519102797477603, 0.2806308149907382, -0.15104760020586228, 0.07080582987558848, 0.16806303712132903, 0.222519326254466, 0.11024563381559163, 0.06070517557662805], [0.11899437924444713, 0.07311786777627259, -0.045007132032966295, -0.6515806193690662, -0.1909838241699299, -0.6199242567850084, 0.23969087717694734, 0.2893115543847101, -0.16606401964036704, 0.04852478303859984, 0.0371733103452223, -0.21012271288375486, 0.8019095068922889, 0.11853109125909188, 0.11626261945004444, 0.3630345089223731, 0.47366024876069934, -0.42306364636920984, -0.04074682372019053, -0.3125263044772506, -0.18510618287554684, -0.3738965451835837, 0.18562874020003717, -0.110653401543603, -0.31169839821004003, -0.08540201037440949, -0.2506096973796509], [-0.19563225053033587, 0.41729229447107535, -0.15756580935908748, -0.17632208292024307, 0.3041214750338432, -0.00490588420826748, 0.8435185185126773, -0.4097398825406386, -0.04149029957989254, 0.16572229514344144, 0.10676414063836133, 0.12588836485400923, 0.1344839850981574, 0.33896658516148664, 0.21562309105604407, 0.48116295170603757, -0.4843384266790467, 0.0540899577746998, -0.16411239531117855, -0.21885902535138504, 0.14294971531984288, -0.33879675357199684, 0.3493360613014142, -0.44846366465745796, 0.4669900857565483, -0.3579462655545834, -0.04360994780855668], [0.7024164062723781, -0.537994594491401, 0.6034013541466144, 0.670123766600311, 0.4138108984954496, 0.3842815719280072, -0.3231575172160708, 0.044034650332951404, 0.210962089840641, -1.4606938441168396, 0.06113958447659284, 0.38625703052357613, 0.07592186283695201, 0.5755221760667546, 0.21804212301495352, 0.11222762649039926, -0.25789979678539365, -0.08523942463005947, 0.2885679349300846, 0.11434839304050735, 0.2699012145900591, -0.19750678786601633, 0.39351797615918943, 0.2756969328376815, 0.2507973536253227, 0.21887581004444637, 0.1941600382305669], [0.46409516353274216, -0.14764492252021064, -0.02303247562422153, -0.25831314096205266, 0.16972505364359677, -0.05140238312058153, -0.34386651787249817, 0.9238834937477638, 0.27245977560056733, -0.0973843993882064, 0.29276492708792046, -0.16451502803369583, -0.4986259340790763, -0.5949805912782307, -0.23502757594198764, 0.3932305808446998, -0.4347998690216129, 0.13265232670287871, -0.18757730212644597, -0.3789362226618314, 0.042045063850981966, -0.007629456748129463, -0.5278694322795046, 0.11932571068142708, -0.37770371599305597, 0.1622594200298829, -0.019525076504514512]], "biases": [-0.3240832070482875, -0.03360365366314996, -0.11688486929588009, -0.04968443168829362, -0.03530254455471045, 0.21877022899867662, 0.05797653113935872, -0.045584578983017085, 0.10766233976805646, -0.09728733505642245, -0.010865295864455421, -0.4024128198582505, -0.2065931090461672, -0.02490113112443315, -0.34829782512139607, 0.1318105714690452, -0.23592192005750834, -0.1339500164716801, 0.1463085025091155, -0.048080828417863264, -0.34042303067148855, -0.3406731587042006, 0.06293569037523634, -0.12387868648647979, -0.3833651909742924, 0.42829923310255386, 0.15010045578067946, 0.00504868684247778, -0.10390966679894872, -0.5260559612881425, 0.06300915928994241, -0.10224997156844898], "activation": "relu"}, {"input_size": 32, "output_size": 16, "weights": [[-0.13504096037807076, -0.2717231862408224, -0.1085952425257824, -0.3361734587273678, 0.07539804749053429, 0.17907403995784724, 0.25542228627296565, -0.5533674201404704, -0.04610990578863351, -0.2154973052223314, 0.03299697686658619, 0.1649908393501096, -0.14036542031662477, -0.01685997516044708, 0.21617756255952217, -0.07488662923809969, 0.15954402223035202, -0.0007690587501306572, -0.26072210051353273, -0.0010110914177625082, 0.20079374769004024, -0.04182606193744575, 0.401345665329055, -0.1468609449592504, -0.40803307023786145, -0.05576348962977569, -0.2866572356596409, 0.131717296312638, 0.621759348501295, 0.030191584673848696, 0.1775905970968345, -0.15974473040513215], [0.10346151423792282, -0.02427879631059859, -0.10780025099549792, 0.002274291450572238, 0.08639198010206683, -0.1425415882891969, -0.32380503029019747, -0.41672988421074125, 0.28958160705728064, -0.4876920587526362, 0.20005546475743383, 0.4331747023783731, -0.250751973166853, 0.2665404122000249, 0.2461633967375761, -0.6600677093848133, 0.2159087130056173, 0.16759307495708048, -0.1640597686195288, 0.46638389669977165, -0.3312062322177167, 0.4147039635622113, -0.14741383577054265, -0.2863284841929404, -0.014136725266302268, -0.3644131349684884, 0.13374037245580037, 0.13848813646839445, 0.30522708014989236, 0.3221961515126523, -0.20609156085834965, 0.1343894076624434], [-0.41061294210614263, -0.7281384286265028, 0.014299513451593743, 0.22658355253697474, 0.1492141366769604, 0.5222964311175796, -0.0460734001355108, -0.648255109818628, -0.09753376105800722, -0.21203004910778353, 0.0722493960625527, -0.0813225084545742, -0.7077423790554012, -0.36336500985621933, -0.09965331120609289, 0.29705578811160793, -0.29797828447026614, -0.3053524792098992, -0.13517428657519395, 0.24390719786629103, 0.3121031983105086, -0.22731561208089185, 0.22769723569215466, 0.3406966500983046, 0.10391788272759765, -0.2859714142827876, 0.07167140316517616, -0.12644796913533024, -0.17844556419057298, 0.5048431041737594, -0.11294848408099446, 0.10702707704827165], [0.37697946547277583, 1.0043286293427403, 0.08800606138292659, -0.34958079377048, 0.12961787634469482, -0.20837647917605367, -0.24279746154540782, -0.6869395240204708, -0.7800913050085895, -0.9836353039449, -0.35138608703015123, 0.15460030802235716, 0.3630163948188096, 0.32398174577154326, -0.16570385982974442, -0.22871120374970394, 0.2055338422736547, -0.3316288524096505, 0.5403855915064986, -0.4315763282178689, -0.012373645593289824, 0.4022728830752422, -0.4744565953991776, -0.2730509029611978, -0.44975852176278347, -0.4834283402627697, -0.6356439507598776, -0.15566844331325955, -0.23588721464078277, 0.16110131026692312, 0.34444191078731773, -0.19011803475132444], [-0.07503316509795502, -1.0118749388983317, -0.3539190924653282, -0.2237955301044546, -0.7914536718443127, -0.230291667512311, -0.18385759958391049, -0.03398910215556386, 0.09559617939968607, -0.39589778593417246, 0.04923091516826589, -0.13962259989308892, 0.6227699065905442, 0.6554214034762564, -0.340858428655137, -0.15259551896333626, 0.2701981852571349, 0.17417225670869593, 0.2787725851184697, 0.5827299630568589, 1.0183815498440452, -0.19929084095106775, 0.14267042577268618, 0.04577426255100426, -0.0989286545784378, 0.1036076692104595, -0.07703425029721812, -0.1663853094117042, 0.21560278188678503, -0.02234500897604787, -0.15620233766220165, 0.341034567041734], [-0.19085713059362083, -0.07778341596350967, -0.1588513611471264, 0.07024416899173828, 0.09124236764058698, 0.17148776054582018, -0.3989212121321263, -0.39446958267219606, -0.07999278466430261, -0.1527006951901548, 0.16983839392664932, -0.18343176728751287, -0.4912396782634068, -0.07546854436488916, 0.2691934095071683, 0.20780226313420205, -0.4255138452245063, 0.16287160065412565, 0.12071421279562113, 0.2127466058174532, 0.06519954615859046, 0.30238351020174964, -0.13180644721515897, 0.6874791738069788, 0.5374344601168405, -0.179443520894018, -0.22984968540118683, 0.3121835535412923, -0.35327633750612203, -0.14345885980642284, 0.18323685233350925, -0.057266688923500786], [0.2213433953353298, -0.680977497397372, -0.30556987695014765, 0.18174504639767824, 0.3720100736646415, 0.0979088610014215, 0.11642878335863786, -0.011031686620893676, 0.0903872967543671, 0.2050742140114649, -0.22225253863977157, -0.4942612305585664, -0.11011873509612119, -0.1325503394583116, 0.42242707622238884, -0.22102849799313992, 0.1369138854274801, -0.5007181732780626, 0.08807491193738513, -0.3258785846669614, -0.08080882285760152, -0.0488159508723649, -0.08774957016083712, 0.056666548629129204, -0.3078548392615356, 0.13002122355555032, -0.4070422771207394, -0.02987531704346261, -0.227602385846644, -0.022605988749507436, -0.038207553544048235, -0.005119152395337053], [-0.34195711760583647, 0.4425764383642976, 0.04993926400418346, 0.19803147840948496, 0.14617312002561098, 0.09367275820805451, -0.46067961571453947, -0.48555802749441085, -0.7316285426418953, 0.3436161223420785, -0.44926769527726484, -0.03283885799587295, -0.2936830409336284, -0.5895932400505981, -1.119033306445687, 0.42795599226869413, 0.16735553349008422, -0.05296737175499237, 0.8458799127048984, -0.03692274198573415, -0.4276440545851721, 0.39859980655202365, 0.25947983858344936, -0.2553850747578895, -0.19076407201195522, 1.0714747267515623, 0.443952384179144, 0.1121883845637984, -0.5152806919891133, -0.16027582139312793, -0.31901405850710973, 0.5366345731727434], [0.1576512365965463, 0.5366069040990086, -0.15769790513845228, -0.14884724227035623, 0.11808222328284833, -0.009870347519860581, -0.5038624152241359, -0.01673080788514159, -0.5324632566085304, -1.0910368447935819, 0.09216331185537247, -0.04034719964976728, -0.15033004583989984, -0.053190400021670796, -0.7773101429983454, -0.16374071012639507, -0.18288372924448282, -0.3256734958351338, -0.3617978696187846, 0.11505174237259946, -0.20626195768457384, 0.062446186180874386, -0.5622477367226565, -0.1514534368807394, -0.4987572647466318, -0.038215327046483415, 0.12586420536100473, -0.7380441123937348, -0.062269644871636616, -0.2833739522104856, -0.32517062799273755, 0.1747124343084312], [0.18340797489252217, -0.665237211965765, -0.11302901470916074, 0.2709978114184317, -1.0143911505794718, 0.27459949455353, -0.3260284233968024, -0.33132138690793256, -0.13414558542751487, 0.5974207974196238, -0.21237028121434315, 0.0019136444095266382, -0.11570416806469822, -0.069654282962221, -0.06200372262511503, -0.16898425606304504, 0.015948591965806343, 0.1674265239502057, -0.27660534361112366, -0.09811495205105956, 0.09004642845155783, 0.08829994562799193, -0.7789037990855768, 0.05830960571271454, -0.1663185892755289, -0.3329290719396036, -1.0832444578987686, 0.22724429057166906, 0.41708995810772054, 0.24934987536239234, -0.09492102133838537, -0.3893929203586404], [-0.2883859896278379, 0.19445609543481523, 0.9521094317453322, 0.8741856034997735, -1.1208960290362373, 0.1950372114519159, -0.20451102448984743, -0.8706155590071409, 0.014043430974944494, -0.15567841680754851, 0.14765541120150114, 0.3501687707288157, 0.603544033688332, 0.3933682364969618, 0.7021233153302197, 0.13123687118533453, 0.1952085244062285, 0.11631075728673966, 1.045468004554863, -0.21417583602493442, 1.3274680076262488, 0.04911803169592449, -0.2300488974010282, 0.6538906224452321, 0.18712230339102034, -0.5867951506851418, -1.0511273706554152, -0.17393528241131953, 0.5825323931874713, 0.18313417562829598, 0.9464611597018334, -0.2957791057237824], [-0.7009137003172915, -1.290183482177233, 0.07187345585244015, -0.12268032922787807, 0.11144064054316878, 0.003688880494749167, 0.11463351256050518, -0.26475987686671826, 0.12834699011441725, 0.06689566751314231, 0.48426717669085895, 0.0010831668196548273, 0.8063039689766417, 0.34166919464988726, 0.047731669998777204, 0.05740567402934328, -0.16727969366006312, 0.2556050321052094, 0.10006787225431092, -0.15604859131644389, 0.2922024016975682, 0.6485708155695191, 0.17451352396947675, 0.24540486596121558, 0.9573671442490208, -0.20603020624709906, 0.22288336635520314, 0.30664637211622225, 0.32527191463865274, 0.037016822659715024, 0.007393094045121466, 0.11977470419620215], [0.017842552134372754, 0.20669680876934377, -0.5700033439043384, -0.08604864576413232, -0.05517010562434428, 0.06690859818478295, -0.15199139156267794, -0.0918518833737717, -0.38064787460747473, -0.13152974346024085, 0.13256740407186682, 0.22159385901889292, 0.22403315054949435, -0.026971183854557313, -0.2056399670016595, 0.32754328811535055, -0.0063341949023485175, 0.08303584158021712, 0.015682146157554765, -0.3714008240824399, -0.30904003800669755, -0.26542125402851774, -0.29244578629748097, 0.2749566287583086, -0.5454555559412145, -0.04454391056054625, -0.07420187796076773, -0.22786112534132683, 0.05111763470717248, -0.20369785611232696, -0.35964136859614426, -0.34121755226488554], [-0.10347777353597203, -0.6945038999189407, -0.07458953132206764, -0.03025567350872917, 0.4894845212345256, -0.3395394809313393, 0.5990567753896459, 0.9248861975468919, -0.4226157523653966, -0.7114465705393371, 0.12807162836616898, 0.3291554415237349, 0.49088032094275574, -0.03222528417405719, 0.46386290118941537, 0.19024612146184808, -0.041599369846965044, 0.05635082240641333, -0.06898775942230174, 0.05510631194771458, 0.721034681087239, 0.7625211502240233, -0.6691495929113775, 0.2793032923171849, 0.7077418842283237, -0.729494092250206, 0.5930421107263253, -0.029272557575790566, 0.07302337730143124, 0.42706578635695264, 0.4528090048894937, -0.5861887946528984], [-0.5143968257716828, 0.008111033000126083, 0.32095454832926923, 0.6409867324385463, 0.5279786102451094, -0.17666963274264189, 0.737405934913188, -0.5443396704463743, 0.3874038473347086, 0.32503080228725045, 0.1909155462788051, 0.18008167277796447, -0.5310687515706053, 0.07519195198639961, 0.44107092937325354, 0.005533361023326828, -0.724823808912347, 0.4876721543753083, 0.5712793916784491, -0.2079185510769733, -0.44393801349908646, 0.41377958672118015, -0.21125548263790916, -0.4155824511249772, 0.38148435490551114, -1.096652177532088, -0.32316297260462706, -0.16094985138652212, 0.26940440229550305, 0.294819970052712, 0.004459264022179397, -0.44585951186372136], [0.061124251450935, 0.1920793247675896, -0.11468576352211564, 0.34383428353513906, 0.31321653526015697, -0.277538192901584, 0.019618411189008613, -0.2467746624722801, -0.37846527963296683, -0.20639781744567604, 0.154376778483949, 0.6130292750905795, 0.5338143971150262, 0.4391401843712646, 0.24533191441428398, 0.00915597821918117, -0.30984664348142366, 0.04673494611946686, -0.8533299317441543, -0.02545483216293682, 0.29206326663864773, -0.1920810346518376, -0.15179527934342393, 0.6343513858735195, 0.4977942675661308, -0.14978110418713053, -0.6708851115165808, -0.23355009820319567, -0.2710780875611912, 0.2548704827328361, -0.24002927140730426, -0.2916577303135156]], "biases": [-0.19371402779834632, 0.05688968630019823, -0.16716698944194316, -0.4066615732228668, -0.3083196487085788, -0.03161676441121274, -0.2839701486434466, 0.10768477017757705, -0.5476291195342515, -0.06644134925018304, 0.3650301161498417, -0.4449113671376615, -0.2035590126302981, 0.37134999985336803, 0.452709584950659, -0.572214865077177], "activation": "relu"}, {"input_size": 16, "output_size": 7, "weights": [[-0.4375413641331384, 0.6919530352632596, 0.8411846561495728, 1.2556985809780146, 0.2229900791397768, -0.34784444856035934, -0.9051926967149433, -0.7296337130207945, 1.326247129497852, 0.6888241349258513, 0.698641398211452, 0.16817378211101544, 0.4513635037504735, 0.9546678581971764, 0.8586070879471464, 0.9342173394106041], [0.2954233731841428, -0.22045214430643442, 0.23376738084855295, 0.40913106477656475, 1.3548517336833865, 0.18486263004184314, -0.3519439555493915, -0.7286767394860568, 0.05627432624427987, 0.45734321857767224, 0.792048220811852, 1.1018795553427152, -0.44111131446202523, 0.7183341208757797, 0.17536532498851837, 0.39115052253305427], [0.6610545807384359, 0.3181844546768901, 0.6994817373982068, 0.0324895277175953, -0.133786966404031, 0.6226260405111115, -0.3076317780733802, -0.7479080714897073, -0.5432927931339322, 0.8555885072270949, 0.7712281845427675, 1.0342983103488308, 0.11380952829594054, 0.3901222475904492, 0.7206916549151268, 0.8170634958457149], [0.5281690354515728, 0.07360194859469565, -6.626877853197714e-06, 0.5486299009146788, -0.23637086834852059, -0.4293011652122016, 0.19864600713632588, -0.9507297642585537, -0.0677959388474697, 1.056180021796344, 1.4476212946894578, 0.05430604363231584, 0.049357434651312766, 0.7385674562148995, 0.6726456848521264, 0.1315999162588252], [0.6162037951054861, 0.00524355586133015, 0.0714199752436515, 1.0087875606719714, 0.3745042416895139, -0.2112521870902266, -0.14511473397124, -0.39056433243301825, 0.21239983233387305, 0.2702546131744928, 1.3394957127655063, 0.3800838608324495, -0.13189904665303476, 0.6795602480743853, 0.5441250307123707, 0.21359986725406352], [0.11096647584827264, 0.08773311585722549, 0.25811393971047086, 0.2366822148433745, 0.37111697905671337, 0.1822432092530037, 0.08250565826044627, -0.5143607827552817, 0.00794886139609521, 0.5942907341817918, 0.9032269604330421, 0.5816266298023746, 1.0114036175802033, 0.9068194255756127, 0.6950790342491552, 0.43271552682395953], [0.1853737102490694, 0.45983945113529856, -0.46152593385086554, 0.4273005877425418, 0.35136952024754686, 0.4654366412501571, 0.10537551066765034, -0.5257700564508538, 0.11119746535404118, 0.4357071962721264, 0.8278625536783889, 0.718313736801976, -0.06137711428453504, 0.7011280106522421, 0.6073501915277878, 0.6443838942056155]], "biases": [0.09437284121486768, 1.2053586285723863, 0.46864853320648525, 0.3956619013944993, 0.4118589720513425, 0.2762433827024613, 0.37635662465975955], "activation": "linear"}], "meta": {"game": "delveforge", "sensors": 27, "actions": 7, "cls": "Mage", "bestDepth": 1, "trainedEpisodes": 2200, "evalScore": 0.7}}