{"format": "neuroforge-network-v1", "task": "classification", "input_size": 27, "hidden_sizes": [32, 16], "output_size": 7, "activation": "relu", "layers": [{"input_size": 27, "output_size": 32, "weights": [[0.09287485322834514, -0.12232909767750484, 0.04417811353923255, -0.3817010924453753, 0.1260079390316551, -0.007411456884331334, -0.735782918471495, 1.1893030180985875, 0.8558841711992129, -0.18485155679593068, 0.39257060949820616, 0.13853509580856527, 0.5805373679586386, 0.450358212812184, 1.6273343756509977, 1.2099844010629364, 0.05943842182092616, 0.4023151749679563, -0.5636913612441857, 0.19243250646995497, -0.20146831316406613, 1.3940162193967491, -0.07870527913991204, -0.6390939987741466, -0.2789261876633334, 1.9998080686563562, -0.48055671533449934], [-0.6588680798590992, 0.8902105778875434, 0.3131809762645298, 0.11411604540186553, 0.17422059104694868, -0.391335478041211, 0.0674009840092326, -0.8377003575003956, -0.7187555961959973, 0.1266662819910546, -0.03854902901981207, 0.24335411588449632, 0.4038645565271736, -0.8304797824719236, 0.32563304896564005, 0.6428304387105491, -0.5777228257504006, 0.07438691273488092, 0.16750944056718697, 0.2649344464757428, -0.4818309539057879, 0.20021655239580408, 0.07710046997200093, -0.004018615670491602, 0.15082799040453881, 1.6841095376165651, -0.27609548607719797], [-0.14777016368810658, -0.06680151610439138, -0.1513947679984098, -0.4974593699047747, 0.05575527573127229, 0.09248815469192662, -0.06953684557839146, 0.049342427315991214, -0.027270542146709802, 0.4226067816230045, 0.26103971577143514, 0.24170764223065808, -0.2503366859809186, 0.2156365128183859, 0.6224936317783475, 0.31230915217525784, 0.23246723543234973, 0.40212338880881815, -0.783786218834315, -0.006119924459877146, -0.09241809600274312, 0.1957943197413946, 0.40733607748913275, -0.12623951100109318, -0.23726619681996505, 0.9889307456079184, -0.6796147193896864], [-0.26007283233186734, -0.6241318424282727, 0.0910964768122764, -0.01799818498328171, 0.4429175361388679, -0.09150616869408244, 0.28976274868585816, -0.07616906942013994, -0.6129482590623585, 0.3482015819826631, -0.10235577550304166, 0.001996734397542491, -0.5465053963712762, -0.24882825711888618, 0.17181545299909431, 0.387522966724994, 0.161265554602464, 0.9828573937375957, -0.7659107949465008, -0.03047717549368916, -0.05552022660887869, -0.737029396082476, 0.46450130472696083, 0.13256975512509073, -0.37685346618869453, -0.21727824283013514, 0.3303909434033685], [0.003243076150813249, 0.5534767196702485, 0.1853222245751113, 0.6532878653580065, -0.3478940039134457, -0.7143752240206157, -0.13260263663433614, 0.7216134064227054, 0.30160846075311926, 0.7551006505842012, -1.174077984189639, -0.6640943640586953, -0.3920467861872336, -0.7251450795406772, -0.01741513411353594, -0.10262257263376773, -0.4628012532162012, -0.5060657953944186, 0.3789656404022438, 0.32814904359288777, 0.09907741130249616, 0.1042430329185145, -0.4765848397763043, 0.4462399612033993, -0.2535538012473239, -0.7126229792635262, 0.43504976538184437], [-0.3665386780358388, 0.018541951923812226, -0.2968736815828128, -0.5525076238374875, -0.307895987570296, 0.08338256080610382, -0.33625264966739227, -0.16423137759644105, 0.2218486157472641, -0.022044375822737845, -0.3537158154783194, 0.44719135125099324, 0.12530069260665644, 0.34559794531413446, -0.29581096055802675, 0.4223815368396059, -0.3913470282665808, -0.4733029617442987, -0.16031354691678984, -0.1055313931820768, 0.0988408041445691, -0.22190242626497375, 0.1823838178411112, 0.3810966853146344, -0.1675671166881792, -0.35916697064710656, -0.09814861161016482], [0.2846260972295383, 0.425555883417523, -0.02611950580371443, -0.10228171473801026, -0.012565441917923437, 0.10999011770961921, -0.0831516778689424, 0.629944303853702, 0.11837627758200263, -0.43968640455713287, -0.1357937628417062, 0.359443832925616, -0.23002600814996293, -0.48659645593545486, 0.46251165228990665, 0.08872836643195231, 0.07031715819670413, 0.0841275030239712, -0.4571991294773498, 0.145423278669227, -0.13396480769112543, -0.38303076240152056, 0.03829192745931832, 0.090690114955719, -0.046060443552423995, -0.08152680809336849, -0.16987272080040394], [0.2247594725079374, 0.1677377558564128, 0.39123446748146845, -0.06659482895031993, 0.46604451755700244, -0.35731650108954066, 0.7641214033208256, -0.024206760484672973, 0.17435986247292237, -0.30437836211482344, -0.4974280611233102, 0.15095747958555128, -0.16815917120664522, 1.4582715590112068, -0.38500857828747315, 0.20922305605917493, 0.19755195088372846, 0.011178100212282419, -0.3866736051070319, -0.2610261896499562, -0.36347535417708543, 0.12770629627982705, 0.05278186495051323, -0.14459547384004243, -0.12414123066634333, -0.6785359788739573, -0.23857067972053492], [-0.23614883179969823, 0.0017783432723726472, -0.04467373024591067, -0.007354853065501649, 0.02235037933993451, 0.37110565188512973, 0.024402219732060988, 0.11207080257563601, 0.03323891398869479, -0.2069400485077557, 0.3250121868223516, -0.155061753559244, -0.21094523735178916, 0.5260013691498298, 0.08571446476155037, -0.27960346396423197, 0.10132060737507075, 0.2604501336333712, -0.0005160517527877028, -0.42943383433348176, 0.06785552931052406, -0.49940512822737754, -0.15696730894032984, -0.14606054215940595, -0.22188418216944733, 0.12471659276014661, -0.20580167788589904], [0.0433519731868582, 0.13071340404615597, -0.19471653507523726, -0.10851844801387941, 0.01982871288461477, 0.3323658871971343, -0.425114118422984, 0.4900314160617687, 0.1706687871186224, 0.0742873243066693, -0.0668291806693106, -0.15883235221046102, -0.019957642589506074, 0.050385457159774695, 0.026985829368100196, 0.7778109179735029, -1.9867322826273128, 0.1562101566677576, 0.23020607600829135, -0.07602311588749373, -0.07657841065234636, -0.14987746257291917, 0.09081008565822468, 0.12905644064174304, 0.35884859041337813, 0.7559706711176997, 0.3814837114136326], [0.07044596005633076, 0.2614135999331806, 0.2461108721732306, -0.3214740302895585, 0.5240324940079716, 0.4272698068278503, -0.4210446744022179, -0.018877968754829416, -0.3052654774885368, -0.045487668345110796, 0.052352743109025664, -0.3191894230083929, 0.06563005248271264, -0.2772200023931548, -0.12264030348162254, -0.17305658622660744, -0.5059145459729162, 0.16869344045946827, 0.1974832795863572, 0.031181802850730363, 0.27787657357774326, 0.07658072610829177, 0.22986965986179167, -0.3308536803104822, 0.36515759542818815, -0.03932250009864178, -0.1974447992584816], [0.23806559974274033, -0.34647984106568136, -0.12300735572611501, 0.07604204921313472, -0.37191339905765997, -0.09848601739585153, -0.4826406551776525, 0.4365349954246158, 0.23005212663717292, -0.786240890048601, 0.2569414269977328, 0.18396432801731977, 0.8366906248188163, -0.19631310635548496, 0.6235412652589377, 1.7609218462672054, 0.5030910290113229, 0.07753639622222737, -0.552986330091916, 0.5196442190599491, 0.2668786466095503, 0.2410038395233302, 0.16830489358117648, -0.30399416838027365, -0.45157072517108987, -0.9832700121933371, -0.12526157928711035], [-0.21674901305389319, 0.3906243590771469, -0.04420459894273072, -1.628112713953052, 1.0577184865116223, 0.6546364423372701, 0.02654411346750768, -0.3521087478275038, -0.4358849065367042, 0.882520224229886, -0.6526460767493044, -0.2916707052913286, 0.0596431390870922, 0.2485634065014363, 0.12716783582300903, 0.6734090016420672, 0.6465655091431576, -0.18588944035087246, -0.22054273368856137, 0.42967967512392957, 0.21173850701440058, -0.07647892524293125, -0.10243141486424787, -0.3125269387097185, -0.6136135028505771, -0.04869844627941145, -0.13803622046978795], [-0.12352824845628092, -0.2886455921529225, 0.2538228542876541, -0.18195678331925144, 0.21403070946009314, 0.34779426647614875, -1.11107166895965, 0.00920636781240658, 0.7455537916535128, 0.1409540529352666, 0.5957536621179591, -0.15287151778889538, -0.09756069317734739, -0.11054936900486692, -0.17743035059417092, -0.4635860352513731, -0.1792875069562918, -0.10391222789197987, -0.0604638816877579, 0.34513325050096055, 0.021321674801716605, -0.4198055042726087, -0.10078906069239527, 0.11646331683201752, -0.008426264801631254, 0.5700041460629087, 0.2214562215120042], [0.023979852281088617, 0.2359139635645008, 0.23746853734953813, -0.011855138108537321, -0.12756373103640978, 0.42436112285246347, -0.41370025642543423, 0.13715717600476113, -0.06298862211991778, -0.08188852379210551, 0.12665291811024867, -0.052908000214751116, 0.08485862114696283, 0.7335213220842728, 0.48569668106090824, 0.07513793042269803, -0.006443452587385898, 0.30596349639213066, -0.26132117633219454, 0.36831420206803567, 0.06754954530014358, 0.07438579822008208, -0.2332886367987113, -0.30812336785815453, -0.24761887414065273, -0.021573730163599154, 0.29617638911507616], [-0.06718402297420968, 0.2421408681179964, -0.10461139593034437, -0.23962966943185424, 0.05281643274231068, -0.09948826406041805, -0.44746930608521135, 0.022571303189331055, 0.33366771301870696, -0.050823817529885656, -0.31767834590614463, -0.197028666049914, -0.3144662611225302, -0.06113682259897772, -0.2531207388071425, -0.02775431816291094, 0.06459188829802796, 0.3704084476986349, -0.2965994608271591, -0.5488124103632592, 0.46714819277399205, 0.13738712700774114, -0.08975045839378128, 0.14526847000573728, -0.24330745350177607, -0.08599632727029101, 0.19384754329073392], [0.08168762715056872, 0.12052874464028539, 0.004228238896205018, 0.5112462198427279, 0.052021427600640706, 0.2984080569027801, 0.8336800069356859, -0.15138811041772318, -0.9513932518349691, -0.5242975329419828, -0.2870471646582882, -0.13325082921766124, 0.40893632950838027, 0.39641399594103427, 0.41681734058240955, -0.21228678910667334, 0.6031713120530526, 0.04413092023414948, 0.042060608841664945, -0.00038706731982571355, 0.4549044674809191, -0.5090321595130309, -0.4118473163325252, -0.1582748599513804, 0.05491273299145932, 0.9712647626507597, 0.23289924300126064], [-0.27689024304543547, -0.10332521550580809, -0.14522703594752195, 0.12265640769384585, -0.445031646228412, -0.17984828858978547, -0.30336953902962, 0.26087292841813897, 0.04279843522670527, -0.1463454548524971, 0.22812783589174337, 0.7140032080714049, 0.1999308544032999, -0.6285099589587921, -0.13629391735511703, 0.40768421146172146, -0.564352522327003, -0.327094762371507, -0.07922778746346404, 0.07664176023931685, -0.2138579044881236, 0.04247873151436346, -0.03440765633151689, 0.17724420445480008, -0.32007818243824143, -0.5295655813542127, -0.577071841438257], [-0.2456495813907971, 0.10576055880388846, -0.06717725912551617, -0.09794182016946913, -0.4807351612910669, -0.052861780090218476, -0.9984462849379185, -0.4429084191408262, -0.1030394979633099, -0.618747099627676, 0.3414290622656312, 0.039552132028327705, 0.1845898219560839, 0.16707726010056317, 0.16565276354639996, -0.33011445774872444, -0.1374351586191979, -0.09614417939970069, -0.18201734145410112, 0.05182753990849024, 0.24162121404145212, 0.41457509148592, 0.36511147449415987, -0.7036665249496761, -0.13620306179192973, 0.5117001639161499, -0.10555828357607121], [-0.20160907606781092, -0.3835020552591823, -0.17926185709129008, -0.10090839293402239, -0.5170118069615798, -0.037592551804956804, -0.18349645216404395, -0.015339201192193624, -0.29114176549034376, -0.021094243249627567, 0.06115162493483989, -0.18420682037206149, -0.1432124197739772, 0.3291355048884659, 0.15217100806295042, -0.16327607725126758, 0.10474907055664895, -0.3178372338187103, -0.17156729047847766, -0.8931086277240966, -0.14992412794416923, 0.164689014134908, -0.12915269118637093, 0.16911603780519313, -0.16548091755393596, 0.044643985438698235, -0.03614279878699104], [-1.1538321495774715, 0.8180437895183695, 0.19226996085641113, -0.7078786658820295, 0.179800602324973, 0.2934376260178519, 0.37554039839597997, 0.008097557845704068, 0.4434109925335264, 0.24222919828203668, -0.03691548842422042, -0.5371508855033484, -0.027704850462694962, -0.5816159339359723, -0.28719071978544036, 0.5780991806983571, 0.09264615587534457, 0.23454705055052386, 0.18975278429849718, 0.24753219706268292, -0.11404432609741656, 0.11351680356186267, 0.04772541737407764, -0.07973863364511671, -0.18311565284840078, 0.08165225690394716, -0.5936955797291646], [-0.056172910335105096, 0.11770079817321931, -0.1526876894409572, -0.3014894426856095, -0.3259298227567004, 0.08284774603618303, -0.3631970573467682, 0.5461911598199268, 0.01223826788943824, -0.10214449874781954, -0.3873587871315229, 0.05202499603761792, 0.7216281004259428, -0.08271692627896846, 0.06232607772305067, 0.1977936179604275, -0.06507956609737772, 0.17332480825434388, -0.008672075495196175, -0.31923190730467854, 0.6989121257861075, -0.32359777290893266, -0.3295645678869409, -0.3160489385840603, 0.017656017795192568, -0.023867506369364317, 0.6248369794233918], [0.09357849890180975, -0.3890054553027312, -0.15749317646372069, -0.20936753878245803, -0.22732072565507438, -0.05632731252354867, -0.7797257587955522, 0.437152202538692, 0.3834077972128438, -0.36467850328518286, 0.16913809450880116, -0.27183776477457056, 0.06527456556549373, 0.2379831157337045, 0.6046135135848802, 0.08732626924433189, -0.3761651843028713, -0.2008185763104992, -0.4453203015003865, -0.07121682828817726, 0.3586217158021658, 0.009130508220775834, 0.13629166127458886, -0.17650550750084887, -0.186249671350299, 0.8520122888203037, 0.008211097586101229], [-0.2049352228337097, 0.08847497440049652, 0.20796511304596346, -0.19132826855968918, 0.2885396435986124, 0.5102349430882004, -1.3355779227844298, -0.052426881079348474, 0.13651485744104458, 0.12952130752859303, -0.08480408499797563, -0.0650575361088396, -0.422832905894453, -0.3107459803436093, 0.8087644113202266, 0.5286356845960126, -0.16174034811400143, -0.03648995622977949, -0.41828952875948444, 0.23609058702392605, -0.12145315979724583, 0.04578619659366029, -0.14908896588275816, -0.5590136724849808, 0.01964815251994959, 0.13416073922626684, -0.391212025316528], [-0.07675295204796291, 0.07657296933562584, -0.09257692201020958, -0.08685864442783861, -0.033548916964245425, -0.01185518915464297, -1.745534406097261, 0.620327617504372, 0.2833528589163061, -0.03631670331755691, -0.08012000723766755, 0.32355127495935976, -0.27583060278679966, 0.09547268831492654, 0.467622568595763, 0.11979315618230228, 0.05209142664168597, 0.38642385984871824, -0.4919927776088446, -0.349562426689904, -0.6924771348136017, 0.22807612219501908, -0.5287572338618116, 0.18607662365239527, 0.7158787376031631, -0.7747541333443098, 0.171175825008126], [0.20279888523170198, -0.2587005991497242, -0.5435677461999694, 0.28208740057607073, 0.39479473811507276, -0.03668949518609182, 0.20856708096970702, 0.07079537619149513, -0.08133481048377564, 0.041575635454538344, 0.8490463436257857, -0.1759519003601048, -0.36233246991691437, 0.25141318768532306, -0.22254411914549638, -0.14470200644915543, -0.3720830387720053, -0.025444148327356, -0.1044706598179405, 0.0577905863156625, -0.10799110988101102, -0.3794989659851504, 0.14212722595888713, -0.06239587264813153, -0.5272681882334712, -0.07735668787606842, 0.1263701078901161], [-0.2828098336962222, -0.5111146897693922, -0.010139849307945654, 0.14752310556236883, -0.6389379214467173, -0.2745524070230878, 0.20290253019585386, -0.3500333674642136, -0.12215250075591284, 0.3648799962292857, -0.04235676987377831, 0.06435130871822888, 0.11264742647993924, 0.12046155131269917, -0.5190253352937169, -0.7397728766241892, -0.3510931325859588, -0.06828131810156193, 0.25704124091909303, -0.18014733189665114, -0.3260504355141461, -0.738856615408741, 0.30794284812560285, 0.8671567541731159, 0.07150638525448073, -1.7332948620617412, 0.17031110735819852], [-0.44100848168691964, -0.016534404552339836, 0.10001862679187343, 0.33499961681824375, -0.04108444251531603, -0.025611492285261727, -0.187510723303712, 0.0665391420648642, -0.32549433964887287, 0.1640177536549146, 0.11601703030855971, 0.3236946718601742, -0.07381539027416985, 0.026351233086253947, 0.07254453103852022, 0.026792530103928805, -0.4537073350249108, -0.1448982387957154, -0.042185883226507036, 0.10971339227058668, 0.24645037429635677, -0.21901960828974606, 0.09796820307122196, 0.1701603150138856, 0.23605182798602664, 0.1336327817726885, 0.06366322445292043], [-0.02948932216166143, -0.0946972105698336, -0.17563196717182344, -0.6507155872687702, -0.2197034054415664, -0.6596164418305068, -0.08193636748331919, 0.2694403011708986, -0.09209410849478222, -0.1304571803857356, 0.040472959541826954, -0.07359099641514938, 0.6033269736837942, -0.1397824090071419, -0.0575593399244776, -0.08771538021400807, 0.4690266935747358, -0.4459390168003839, -0.06495948602012538, -0.6674651228219739, -0.19228806227038586, -0.4983348882515933, 0.2533666283073578, -0.29147974273117416, -0.2783242314055241, 0.028448664709837566, -0.2506096973796509], [-0.5899283148399735, 0.5091765499990432, 0.024929116000504927, -0.33181876617851036, 0.36112103614578406, -0.06247223355832448, 0.19570599772705283, -0.3721740940262758, -0.08634676678448157, 0.2022813315945824, 0.17171268294397385, 0.07007144827315702, -0.13184861940866097, -0.04552391912293721, 0.6233204723416818, 0.7481578347503375, -0.42620876855116835, 0.08294664512605532, 0.03384099104990697, -0.2823007165665617, 0.14124717937977516, -0.038610330763682345, 0.4314889891408779, -0.4873369229442992, 0.5223227560195551, -0.40321576675662263, 0.019881796424120888], [0.40307376069678413, -0.34604648468155286, 0.32434880479449235, -0.4142876277294315, 0.49966248417033954, 0.35966100263478573, 0.234009166308826, -0.21868605110191502, 0.02009222119309828, -0.6123818824910505, -0.5062399043750327, 0.21131391151772427, -0.16047184709855664, 0.685149248068392, -0.016326692865671108, -0.10991470430604282, 0.029375240252262333, -0.2510652488456902, 0.3479745851927304, -0.08890517891399827, -0.10614766903791642, 0.43916983835417844, 0.2733227723620884, 0.3215794708617214, 0.3205997837426883, 1.0302647816747599, 0.1324250710014068], [0.4407144489514798, -0.06777007373904402, -0.1354772115756196, -0.15073490366936604, 0.13705748556883252, -0.10634286017266091, 0.4301617171626818, 0.5443846357026595, 0.25438678065160714, 0.7521128692382405, -0.9438774171726386, -1.0977814827019996, -0.340722157584669, 0.021404064897133344, -0.815660344300553, -0.6825400869180323, -0.21739324601304427, -0.16284248626369302, 0.4452767147857279, -1.0634067772824594, 0.3301001557057509, -0.12373704835347324, -0.5716422987784802, 0.5340174401982554, 0.310626113555772, -0.6897048086405331, 0.23895117354550752]], "biases": [-0.9337383746011548, 0.12258214055515383, -0.9969381579951162, -0.6662980155419976, -0.005124489106361949, -0.0557576828059555, -0.2966669792424009, -0.11437850775188302, -0.20552143356485963, -0.31348190192135106, 0.24543887800476927, -0.532768567778348, -0.07798845319182578, -0.2974751585666993, -0.15498839641658224, 0.009056330539027733, 0.16013260130689566, 0.025522331400628755, -0.5102168841467174, -0.03466286252672842, -0.3538400918217947, -0.34881409273880065, -0.300489465298171, -0.39895329277729485, -0.46565457992458165, 0.007622362916275076, 0.03458103921016408, -0.06256154705434298, -0.1281223290988852, -0.3281025749270727, 0.12241580955253517, 0.5306040453436817], "activation": "relu"}, {"input_size": 32, "output_size": 16, "weights": [[-0.22331356143159276, -0.19548908677549962, 0.2709365427095827, -0.22920830607446777, -0.607065565349891, 0.039337131849146036, 0.02210037877279436, -0.6911560551659092, -0.07003262263751468, -0.3222540583428379, -0.02399549170026007, 0.5875813558314619, -0.7239838360689922, 0.2131468577211272, -0.20663167682974065, -0.08419752842856418, 0.6297193340756697, -0.1432563304046462, 0.22885713897377158, -0.05705571295802326, -0.3788612218614326, 0.16243330859781943, 0.7952089227244422, -0.23221616519221364, -0.22082829970330678, 0.1314530272744408, -0.4342357307856394, 0.11219598050776558, 0.7917578267653383, -0.0040100613056983005, 0.022501913963566676, -1.0196956109282034], [-0.24821723113755734, -0.29400668273306485, -0.02281590804577152, -0.11002349179352354, -0.16645835422931093, -0.15505853643140272, -0.29070588685047777, -0.18455869422942175, 0.20064966753930777, -0.277405279301578, 0.20199350937092123, 0.22929370268373345, -0.2528249683735466, 0.2534652004179332, 0.20595022682580597, -0.6532042843700419, 0.08221251265001366, 0.16655143390151078, -0.21917259313736817, 0.4356435407533573, -0.4392527169332609, 0.328094026838575, 0.07858437709762023, -0.23313710313658, 0.030344636103044196, -0.375747529195062, 0.07042224455926333, 0.14230758021619236, 0.3196578192727226, 0.35870679123574206, -0.2411401228149191, 0.02665024064900058], [0.10455419425101461, -1.1415894683735883, 0.12819158009256, 0.33248823289346063, 0.39486301922775635, 0.4331667485911654, -0.10098502207379043, -0.9024205387327195, -0.2396693430378182, -0.12282433960912736, 0.1108688720034803, -0.2997688684740127, -0.7600460002261861, -0.40292822254326266, -0.1412783571733541, 0.2832397400647349, -0.605740736846873, -0.36021397646270764, -0.20304959481176202, 0.22762160335786322, 0.3623310384065105, -0.24665383037565675, 0.15228505943072654, 0.23784224149874125, 0.4467100102609528, -0.3101851733391347, 0.10667980024966792, -0.12071698154644052, -0.23532443449101656, 0.3692194526855773, -0.4078553213966151, 0.22853553491297487], [0.5703899918610577, 0.7292980684385176, 0.40170590161202757, 0.2707864663795331, -0.006183473734674665, -0.26955129505720593, -0.08362428886972906, -0.01755259033278933, -0.28801464819690303, -0.8799654919070569, -0.4621701374787092, 0.0790567538526684, 0.6446673270003159, 0.3219695847858468, -0.027604972503059457, -0.2647540410994128, 0.42392892437915586, -0.5317244572105017, 0.4274678519166778, -0.5158825179129957, 0.2858426896966897, 0.4330001946901649, 0.4114764037745199, -0.19762066930453584, -0.15761827690143088, -0.4617451106939926, -1.283519406057938, -0.12587617862062264, -0.25898455902177614, 0.3914862512228266, 0.5771980389649248, -0.45650822392877477], [-0.19343905325641725, -0.5226478194535341, -0.26426762818623195, 0.06382796045165595, -0.44079120969986163, -0.22156756620271972, -0.1744220329801151, 0.042302034426899934, 0.2926461125282214, 0.13683279801502565, 0.013433272945400155, -0.31617996660191067, 0.33019474473078164, 0.6327559796412874, -0.16134410752084588, -0.14622450030118533, 0.1102442640925077, 0.17510469669642423, 0.1177655284633181, 0.5238544806713765, 0.03537167115066453, -0.1918728267531497, -0.06210040057278432, -0.0580728666442787, -0.01690647887653681, 0.3085590255297402, -0.004278811308939776, -0.17965391599399688, 0.14632901548967134, -0.0443536207369897, 0.09763766661447104, 0.13317882465916556], [0.5299500861791381, 0.6159050094520563, -0.4046617251492917, 0.1135819566591342, 0.1842089409856317, 0.12848153681972296, -0.3880011634034665, -0.42298665407580727, -0.13605663577909463, 1.1077291016428465, 0.35765646407358476, -0.3269206409437568, -0.03749958771522871, -0.17644564113832426, 0.29595058273905817, 0.2318783333300457, 0.08842230463933104, 0.29807802909976655, 0.09983331407697468, 0.1939147538012224, -0.11575087244715583, 0.3817177266274427, -0.18319623502792814, 0.6242179189389039, 0.22616890038368587, -0.06303893342047184, -0.5144066996317979, 0.3317475308429304, -0.3884499501587346, -0.2532503695451436, 0.16168759857223466, 0.0071241017302196095], [0.22696934175987538, -0.5993220178110773, -0.287670954541559, 0.11708463376592175, 0.019895412961909248, 0.11359948173688171, 0.004748123170115152, -0.06508414092238812, 0.2520279906584313, 0.4172231441386268, -0.08783955182212307, -0.3001989096115653, -0.2416505324101378, -0.12565121716829292, 0.33467239190075465, -0.19892788354810315, 0.13870916864518892, -0.5015145991956101, 0.192722891713038, -0.31416599424315617, 0.04711965413076217, 0.001931364680716995, 0.05579111091832261, -0.13189130820063666, -0.2826316109993651, 0.07096999456465898, -0.26958983139283743, 0.0095755758753966, -0.14894244590027417, -0.027371351939317064, 0.19443420227741753, 0.34826646625140195], [0.05713593439745769, 0.28396042526514076, 0.27998216367972634, 0.09533085070092243, -1.2531318784978913, 0.06207345195600854, -0.47752408195598345, -0.39778217296211515, -0.4661104142604381, 1.042537780299338, -0.5702930150947079, -0.2846665767764733, -0.5778139295593391, -0.396687917827698, -0.685528710248927, 0.3592261999025541, 0.2558529131270077, -0.0944376756414838, 0.34939075814105836, -0.10984099932597256, -0.328176552441828, 0.44689158664980744, 0.027911173755499497, -0.34817695721624176, -0.17905741598337102, -0.011337739538705234, -0.04678407090664127, -0.059398922163479674, 0.04848918612613914, -0.10908508841189629, 0.23505065610907425, -1.02656188878614], [-0.25855841922116773, 0.24808562010011145, -0.18882338659204467, -0.06618727710982883, -0.036910834382060394, -0.0050035633704078085, -0.33683168702952965, 0.07658400756909095, -0.3169336551127469, -0.24064721783849613, 0.09213346985259586, -0.07642343810708034, -0.19519579733119746, -0.00791870548455508, -0.2268262826451739, -0.1633465107134028, -0.4083070502142026, -0.32567637894669754, -0.3046163348381814, 0.014057812972674869, -0.12166012204118165, -0.06086560463819441, 0.20114715967429267, -0.1858803371170105, -0.45614270883868846, 0.002331247461377701, 0.33241996687067854, -0.7477850558050332, -0.07960494393906042, -0.29815163662606203, -0.4116086131518585, 0.10921517152758435], [-0.0462163273703782, 0.1506572908193397, -0.3632945499307227, -0.15051538627485872, 0.025276065394107892, 0.3269298016706697, -0.0853997078011617, -0.6623875600480527, -0.09619446519696785, 0.14700363197752905, -0.28071024754457385, -0.2626300410791916, -0.15759199086399045, 0.12383914944138524, 0.018443720003519744, -0.17074263482800442, -0.24220114031631573, 0.07663894715018606, -0.29257932066427206, -0.1012525845346348, -0.05342686966811115, -0.0800910039406036, -0.23013200323987942, 0.6366871683059816, 0.006230969097182588, -0.2549388016600328, -0.7409226324261367, 0.30319104797006674, 0.12066570807499742, 0.010223851618424156, -0.307494784252481, -0.6040235846222822], [-0.02283484053150985, -1.1083325112172622, 0.4776151949210713, 0.9595359840561485, -1.0335467452965186, 0.0028572715960975305, -0.5019956073970777, 0.1021673195316282, -0.05499407480083685, -0.39738172726096815, 0.17894980062845406, -0.41251389298545654, 0.8515878665558005, 0.28915000223199067, 0.320455226486248, 0.09072904725201797, 0.025184095100507786, -0.0431835853531289, 0.17727811823281917, -0.190565768542183, -0.36724476496388897, -0.10946790379564314, 0.2027389793870715, 0.21636344188757436, 0.2313641736690387, -0.2806580015682523, -0.6065877065666446, -0.14750804714338941, -0.13822644344878257, 0.15069824177802973, 0.24764234251875195, 0.047070381076671365], [0.3012156993898171, -1.1181065390234117, -0.3528949296859061, 0.053950674207251, 0.4687779867600451, -0.16821254360189217, -0.5025877127427217, -0.8225653766645751, -0.2939905855281839, 0.009959741106703675, 0.4390944359397847, 0.3004689628694366, -0.2344982897073584, 0.5151253893890327, -0.3450061677658521, -0.03048126656685298, -1.3620563910871926, 0.24407038373246398, 0.2030210718418517, -0.23336078080574546, -0.12100010678882075, 0.6465398133782535, 0.20441816558432518, 0.5781746174450475, 0.7688063669866948, -0.14015065065530327, 0.05212656136801625, 0.2711546636069166, 0.1365836216701838, -0.06309345317203856, -0.42476110903966313, -0.04699935003173036], [-0.0161999255417736, 0.09093247322477009, -0.612544076384783, -0.005879009341439298, -0.2771758949748655, 0.06839888894834249, -0.12484409874810934, -0.04117277739055565, -0.3832865277386393, -0.10714285071963355, 0.13911048130854173, 0.08272575894866896, 0.11137786009904461, -0.0042579982426842345, -0.17133653954345038, 0.3229798197976901, 0.08190477560170678, 0.0523433809649571, 0.09732408579795024, -0.3655524836937322, -0.3836816320575634, -0.31396751624754304, -0.30284575619016524, 0.2712183065526482, -0.4581961118229314, -0.048662922595135036, -0.0311515978766588, -0.22446458477014025, 0.07631786987794466, -0.2245842101205646, -0.3122499086376298, -0.37025965175888265], [-0.0327428071356791, -0.0020458279509066096, -0.03328719066438794, 0.6518024918882072, -0.20877514851434595, -0.28257502635583276, 0.24245547140030804, 0.34328826069887897, -0.4760122613963799, -0.30732474588557723, 0.04391037532581886, 0.5723119316773917, 0.9668533518136594, -0.33343953015679806, -0.06659429769925632, 0.14853975780410147, -0.1403606455643557, -0.06182957001394227, -0.011029640571756769, 0.1960183913622565, 0.572635583121707, 0.32120613996780206, -0.07922153611382853, -0.5175270625920588, 0.5255373258395324, -0.4697995247849076, -0.16320027379417304, 0.001255258415652473, -0.28264791422561075, 0.35342464071463064, 0.056667019973760696, -0.773713929812698], [0.1230881883895868, -0.3980625914830991, 0.022841855249323532, -0.09054910166601363, -0.12999682538780058, -0.0463035501305804, 0.034992984680136265, -0.9637788061039108, -0.14958051060147512, -0.05096737664000907, 0.19164520862969947, -0.15462856734624408, -0.6754685966874181, 0.343845564321354, -0.036934726771093655, 0.006318196606234479, -0.23253098110375828, 0.4518969500530377, 0.5478386252771611, -0.113840887638902, -0.3643842413848328, 0.1412801274569364, 0.6156753867011954, -0.22045986720884292, 0.07146237230028317, -0.32242329898378114, 0.025897035488142723, -0.11511192907972277, -0.09317059487636056, 0.305240158045745, -0.05237099575642372, -0.17975958941535639], [0.8707463696733467, -0.039608925117773586, 0.5804791504142262, 0.3040399537930703, 0.312820274836845, -0.31781565292234665, 0.2552330168535761, -0.20025644040835208, -0.2763409818818659, -0.7862134178757227, 0.03573604474597163, 0.15528597318175494, -0.32028989060842067, 0.9865938116049405, 0.11804242495247594, -0.03463569946840406, -0.38748046668759434, -0.3532200015289908, 0.850225534351617, -0.22965543597253466, 0.1171325647738493, -0.17319709937501, 0.45921880594059833, 0.8377031660302828, 1.0488799633783155, -0.058784830275689155, -0.11989056708307633, -0.20306446257619, -0.7708059437303645, 0.5269753843257224, 0.12299324100971515, 0.053547914515100214]], "biases": [0.15943366179794904, -0.14491708215264457, -0.4070439192275284, -0.06859676337412872, -0.3267517553520563, 0.08700000800188416, 0.0796766157512257, 0.2699356723527064, -0.20386889527676147, -0.13358913507354847, -0.35162545708931314, -0.1809649909602807, -0.18645959748597826, -0.1883589492462934, -0.3227399290859048, 0.9065975952689237], "activation": "relu"}, {"input_size": 16, "output_size": 7, "weights": [[0.19912586356746337, 0.4897678005970349, 0.9737182150532099, 0.4856946143603531, -0.1504336788545389, -0.04600120238607301, -0.6544765075450345, -0.26705347541193464, -0.3352799424903489, 0.8427288254826683, 0.4196239645750425, -0.15797583237028406, 0.48542626330751854, 0.8077978623642341, 0.2975678038221761, 0.7187949319203575], [-0.017717774846419745, -0.16570705271474484, 0.2022817241535661, 0.7510479407732776, 0.5597313832362607, -0.9031278216877906, 0.05875453208527485, 0.03898928286140585, -0.10929710908688582, -0.2116816155771703, 1.0524561089817823, 0.8266952580134797, -0.45889156482574134, 0.744306485072506, -0.17430397443216689, 0.7185856813352718], [0.6139962647452681, 0.21394132258491158, 1.3170671708782662, 0.610485086304083, 0.1914227065172508, -0.2791672667004226, -0.08436299093082722, -0.6651108838123126, -0.45914882929840334, 0.5213385876002166, 0.5638598768770361, 1.678674024606594, -0.00600304929572669, 0.12180635207443223, 1.0591641734469124, 1.1355410895525402], [1.3417748980504507, -0.16091935211634226, 0.3373810454820386, 0.5460869076218378, 0.03654152531446598, -0.474828467009838, -0.17354900793607134, 1.4169790090281442, -0.09296663218285903, 0.5902799779625417, 0.5367451588685913, 0.3577406015984594, -0.04313218606793691, 0.6699284544026349, 0.38047725069052946, 0.7081275433363663], [0.6598695061089291, -0.03451475253813645, -0.025927345479263966, 1.004266750239149, 0.48221021803987846, -0.005973426533374387, -0.15941286929411697, 0.7754340823538978, 0.14552005722647468, 0.22234419905445668, 0.5923959582371698, 0.3549195335901825, -0.2259517317401529, 0.20786047922152967, 0.579232302329706, 0.8790170811454376], [0.5879678471173788, 0.026172093482708495, 0.24020717689794327, 0.7374253469611051, -0.11372053062914333, -0.49227671327833195, 0.036495175457181776, -0.3916579403554511, 0.1320640712547408, 0.45658544371339704, 0.6927763731851305, 0.939996663901211, 0.9615676043822734, 0.561049082476238, 0.015716972156740214, 0.8339533150512634], [0.5251850086554037, 0.507129437824709, -0.036905675585403454, 0.8005426491541315, 0.1762366871362124, -0.47084326844450947, -0.10548498371597766, -0.07471988650581794, 0.08325133780507617, -0.1291141163594428, 0.7866851195380251, 0.3680794769335559, -0.006540588657156196, 0.5962818884704203, 0.37764733684017365, 0.9029803219480923]], "biases": [0.5171179079161539, 0.3068933942796795, -0.08304407386019388, 0.4340874997312482, -0.2774473747503737, 0.022657217333001887, 0.014863265100083766], "activation": "linear"}], "meta": {"game": "delveforge", "sensors": 27, "actions": 7, "cls": "Ranger", "bestDepth": 1, "trainedEpisodes": 1100, "evalScore": 0.7}}