{"format": "neuroforge-network-v1", "task": "classification", "input_size": 27, "hidden_sizes": [32, 16], "output_size": 7, "activation": "relu", "layers": [{"input_size": 27, "output_size": 32, "weights": [[-1.3515052951351358, 0.17000934222408784, 0.479212122195477, -0.864103170235865, -0.20244574733169624, -0.062002100237330576, 0.35176368789565093, 0.09657431412171265, 0.038325476474299736, 0.5476329353971425, -0.30577338393195425, -0.30058558496422333, 0.5532526649241392, 0.3436425699832719, 0.9039678744699566, 1.3015749529229588, 0.9418503610469486, 0.25476734189430156, -0.34250243379825535, 0.2581481504112242, -0.08669138100392772, -0.014943204827888471, -0.16245325931090385, -0.17441740290420812, 0.03407565905237045, 0.5296674556315523, -0.18809578748466288], [0.08154304049365156, 0.4954667570560444, 0.257071966581941, -0.04166482967083154, -0.081737231708346, -0.39345918460260165, 1.1030640491057588, -0.9514587056614221, -2.293861963636811, 0.5354561497394328, -0.31391555571183244, 0.2514751155313869, 0.4802322757524761, -0.3100884864228616, -0.14357026796502637, -0.9522758783164206, -0.7449570474692027, -1.686993113041911, 0.4235256273684968, 0.0041628680759597135, 0.011503135573721712, 0.12210106870335079, -0.00042682373576291436, 0.08455677706771159, 0.09504681680604458, 1.4424075042692108, -0.32601567049903996], [-0.07225420463991, 0.09751708642072243, 0.02386592377184582, -0.047733415008316266, 0.12119617821349331, 0.007976902103367567, -0.1542096526795777, -0.13167248487067015, -0.12783460899448978, -0.7341627920310365, 0.05513655977745303, 0.7680029587566396, -1.0328455967740637, 0.12210892496531668, 0.6885007442965911, 0.6051914708525442, 0.525373593675454, 0.7201800575151833, -0.4443180940725679, 0.30498654350610693, 0.3322118720948769, 0.5935937209753472, -0.1181912467920081, 0.31259549726425034, -0.1569472648940239, 1.8536819821218637, -0.6821946448640184], [0.6094159264321187, -0.42247556372434725, 0.07537634114706458, 0.3119235768604998, 0.3505555394166762, -0.11371330451788367, -0.025827620585463746, -0.2379312332351203, -0.5024454566598978, 0.44267430990683615, -0.0756831766695542, -0.0494018735934345, -0.23919833669534019, 0.12964808798028565, 0.642532870498663, 1.5201912584734067, 0.40367659180053667, 0.9628493225904491, -0.7261658914648784, 0.10683938238894686, -0.1610016511916584, 0.08593054120858458, 0.2353044133239859, 0.2708148775266235, -0.32937396329560364, -0.17695250948560143, 0.2476134750096288], [-0.3283015300397658, 0.025117463743797117, 0.19458380190255847, 0.5263011659139681, -0.4335032164770567, -0.37338163028865473, 0.3848864076003246, 0.6495831219470752, -0.09713041478977427, -0.09101567057607239, -1.0235079327634298, 0.07626584598680121, -0.6469367413516401, -0.3490947711510549, -0.10767454601048956, -0.09247771349258765, -0.5275616027608924, -0.23527849694583822, 0.646460887072088, 0.0658392134079103, -0.15710322653895115, -0.23123373750608844, -0.78919163744296, -0.08199721768480182, -0.15062691733375308, -1.1971810436977794, 0.5210214671371105], [-0.40890332997023426, -0.07597718152438174, -0.2824162757288278, -0.515983929616484, -0.31495173496581214, 0.07291842253654368, -0.3376087268267161, -0.1687580573369491, 0.16349797054514095, -0.20493956681697803, -0.34260344589637604, 0.40027503180110185, 0.08175899449100885, 0.5853506500324429, -0.3053860654446254, 0.5613229823387648, -0.4106005198463722, -0.455667851497145, -0.0419541683963683, -0.06605424062219294, 0.10413901090297921, -0.23768562216946548, 0.20164334278936805, 0.41741866357991836, -0.13916335418655096, -0.3909593597525799, -0.09814861161016482], [-2.368384964731476, 0.36604809297625124, 0.3357191948326562, 0.14119041508289268, 0.15819888176085128, 0.3997832391058346, -0.2539109185880287, 0.3037494147242581, 0.042133187715183706, -0.09894387900437537, -0.025169299905143716, 0.2957552665076198, -0.11059066592916511, -0.5363509396219402, 0.31586903970993724, -0.18995295727144249, 0.5103319284315359, 0.4828940661331691, -0.27564054456489234, 0.27852665766144175, -0.408490947405855, -0.9340914143075904, -0.1630289621531996, 0.06647645472918859, -0.18942206872515047, -0.447149993888778, -0.2074233455254669], [0.2973735824415801, 0.38224714179392866, 0.4441147690495522, -0.06402743421430104, 0.5495219437190854, -0.39726198325228546, -0.05344748315572302, 0.30707793513621257, 0.12032440523931727, -1.377943939109753, -0.15016394846103642, 0.23941268746552596, 0.4668102290992188, 0.7190622632131285, -0.13878376375517953, 0.573404412998279, 0.34005091503314533, 0.1852575398462914, -0.2908606224582488, 0.059638377737276684, -0.5283833741407096, -0.24725097998755438, -0.0342143080422075, -0.04471218281018421, -0.034137920522214135, -0.16609971741566926, -0.24259807636310263], [-0.14777787932676528, -0.022962723748880694, -0.06674610875786517, 0.10840136546594155, 0.0730784393574987, 0.5298215725292772, -0.7030892833469049, 0.3647072577557778, 0.1904584121821306, -0.012931263097734309, 0.3362831093717261, -0.1732439735653077, -0.6088057443569374, -0.10647392197105214, 0.19651966134152696, -0.10146236477515856, 0.11381268642801304, 0.49288210917271785, -0.07265213152751195, -0.4098965890760439, -0.01863123904355346, -0.7382864304095502, -0.07715045238513883, -0.20205417841773138, -0.1841928824072591, 0.2092521846566285, -0.2414231354297831], [0.3555150256961842, 0.03371381350105369, -0.18555997767326474, 0.18173795765911976, 0.19506722635575216, 0.17114719156913288, -0.4096922009999687, 0.4011681971416136, 0.15274164189222594, 0.1694037249128162, -0.19466773720840674, -0.2465710742605307, 0.49884979688832104, -0.35323985557569737, 0.3910750932867841, 0.8577074279351096, -0.2838484846355434, 0.12241426582257735, 0.16397271134383007, 0.1983917977111717, -0.1424435970195254, 0.013311182289963036, 0.012797226480000022, 0.2320989572339171, 0.3194312173865859, 0.07202460664628765, 0.15292079321855442], [0.10230072193898311, 0.21544711730430255, 0.24094489321673054, -0.2776512063122926, 0.3278104621117265, 0.24802854457074308, -0.29136174786420654, -0.06703446474447558, -0.38926120934806313, -0.06967980374343033, 0.1011455989305004, -0.3066450486041865, -0.20120689898760089, -0.22981843691098083, -0.1796902458893223, -0.20142390664212476, -0.26876609412824526, 0.1672389576046415, -0.03659932534718278, -0.21017071600836315, 0.3007642835220767, -0.14048431017253027, 0.256493504913658, -0.3284960940649743, 0.4016970137712923, -0.11279696314093285, -0.2488941486568404], [0.0754284565336021, -0.1637156439751783, -0.12428388942702603, 0.12987416127263987, -0.15290299662683993, 0.2029243377418479, -0.3543601110266132, 0.02020825184689927, 0.20246451374635696, -0.17320678785603855, 0.2438222874067547, 0.2763503323482927, -0.2107429869792122, -0.6362415380392774, 0.20192678305941394, 1.4599710320430905, 0.4674253714867292, 0.1506701366226197, -0.2830310561481833, 0.29463181609260175, 1.1481351274825151, -0.09544576194797952, -0.11110005718112212, 0.03036566539527766, -0.23010892408026942, -0.5231922549731818, -0.07552097507846078], [-0.3721555459369376, 0.17059704842764137, -0.4432732439135816, -0.8018294038115588, 0.5193212632783589, 0.022895037716902007, 0.23489119299050595, -0.13085532260947166, -0.2045683698249487, 0.30079075966141533, -0.34987899558663194, -0.2339111073141719, -0.11701739608658959, 0.3395558933561056, -0.27903846646882324, 0.23166297363992955, 0.20720212614571407, -0.4692297337562673, -0.3415217016400084, 0.16962372758135721, 0.44926992238221575, -0.7194969736859924, -0.18413700827069374, 0.18603203818050038, -0.3326689290738426, -0.3491166387620483, -0.1271706608218602], [-0.13376156486291882, -0.4265794821732492, 0.07443275039428568, -0.00604912580752775, -0.0005855322161097435, -0.04031840235255216, -1.9346680495259263, 0.04890245485795817, 0.69386252247855, -0.061020657104030124, 0.3478775251613581, -0.23888066703530006, -0.2816118049581678, -0.038082845936239014, 0.3038035589013305, 0.09437015596151159, -0.15041064833720913, -0.07188447283894815, -0.3071916338805777, 0.2288315195199722, 0.18079495246468066, -0.3646115734291134, -0.017600382313443, 0.09387132160309758, -0.024651858858436255, 1.3654117402459116, 0.23925603201403683], [-0.15764547041018817, 0.2248961577950424, 0.2653744317090042, -0.23573142378780138, -0.18100921959873123, 0.3593911331774631, -0.42418591274683093, 0.11869142145269779, -0.09773674236655348, -0.02153534839531607, -0.08092593784509218, -0.08906592619135545, 0.11084514553700146, 0.7498241033209083, 0.5776162997425418, 0.15934438800121842, 0.03723114438081063, 0.2778573780175828, -0.18710608252082117, 0.5474748105938649, 0.005364268061561328, 0.11007863231540288, -0.2597485861607656, -0.30086375432739393, -0.25283713188739093, -0.13110139209023994, 0.2972873955512996], [-0.15374551617935603, 0.3155029532886494, -0.13919101007079632, -0.21060425329072957, 0.03233280704694825, 0.0014997427044942464, -0.85502707983486, 0.13287530440056644, 0.2780435119014869, 0.10341981398018008, -0.31492236111334326, -0.20731302708700786, -0.4368316011548009, -0.11958011021454068, -0.21883163963659139, 0.07233145808635152, 0.29506547741658024, 0.3970415901478686, -0.1702707658359352, -0.824415844603514, 0.6003483125182604, 0.21991513147700403, -0.04966513720179913, 0.0442802677177696, -0.18569581817360162, -0.12879289894859197, 0.24163148445360905], [-0.9241470732112909, -0.004046278908509191, 0.3357599308885541, -2.100224943911139, 0.5721089436544473, 0.5932014643574405, -0.0689778626728838, -0.0009469209656609325, -0.21187553251404834, 0.18721960379940825, -0.5926323927469955, -0.3302546975737874, -0.061866380659181895, 0.4307588126811543, 0.38228075690118263, -0.4683685359680424, 0.36047064351148883, -0.16099698727949582, -0.27516244832240044, -0.3093679476262679, 0.12444194830308872, -0.3890753729789518, -0.5045866272955987, -0.08921934260462017, -0.16751471346943378, 0.2123041446217411, 0.08642941283712245], [-0.13490101428974063, -0.13298191818911695, -0.12296314065713282, -0.2592858739812622, -0.4286082464375371, 0.13444835254352033, -0.5859483595823312, 0.7806179530348907, 0.15212533896993607, -1.954282358839007, 0.8949612948998941, 0.9136557966445393, 0.1165797725588752, -0.043214556885900535, 0.0375513221361651, 0.2915864780615015, -0.11844847634884782, 0.13999901420487026, -0.23917258333202504, 0.41628672703357045, 0.4099531821091217, -0.41225650340239905, 0.0734898226269434, 0.7432264608137723, -0.18057473557397408, -1.0156179992934775, -0.5666691365365237], [0.015245858939840762, -0.07027389301567287, -0.13897065907269204, 0.031385345360029966, -0.368943634844488, -0.22264732137771193, -1.1202924002814083, -0.21889146635402507, 0.10298533629073456, -0.43003531960012875, -0.46962354772371395, 0.14495869847785509, -0.15985776055217646, -0.1255790008068144, 0.16918607769793342, -0.09249814093986941, -0.22216233082567502, 0.4090934594810075, -0.04019742636687949, 0.026826826632973144, 0.25868984332727224, 0.4853710034124594, 0.38352919272055463, -0.5920522508994519, -0.0990457075244797, 1.6540609576521437, -0.14698953724223157], [0.06884393640120907, -0.3894871176888893, -0.16460603073567967, 0.13291901585330992, -0.5451084676413842, -0.09574841241387085, -0.3165468950723078, 0.1361172079133875, -0.20793500351978325, 0.678245001677687, -0.029553912816860893, -0.32010256481719346, -0.29967770838618374, 0.30074972519690246, 0.06380320324432709, -0.39060901127955183, 0.23845327686480586, -0.3743363641222584, -0.036171356564655206, -1.064679894461675, -0.13009848623767123, 0.3151691185788638, 0.019141447979285152, 0.24452929190762035, -0.14780449925897907, -0.08859223639277994, -0.019223917560418986], [-0.2959731616765471, 0.5674077334008044, -0.15389895920860602, -1.1388579530166358, 0.06739953591014482, 0.06324761447624248, -0.05555985485261537, 0.03279014771734225, 0.15242175657892157, -0.1045480033999889, 0.18008846587424363, -0.3148956020044834, 0.5646299092301704, -0.32348745375673843, -0.49607158151915665, -0.010570639939951568, -0.08891844321351168, -0.004787493421543034, 0.1657898004292986, -0.15622623905409205, -0.2240166335717894, -0.4781395112029918, 0.054847208659832954, 0.1940062948702227, -0.036472147260131746, 0.041814567307331144, -0.5743991207378055], [-0.10518947970602952, 0.266293383080044, -0.19023200773832843, -0.1979104037892174, -0.27867209466957216, 0.0040830179459507305, -1.7040975893210404, 0.42226046739442735, 0.3466588797039685, -0.17927157875425423, -0.322582367130925, -0.03514381190136875, -0.11330580292633738, 0.0016933514514134163, 0.26063269486661766, 0.11873930190168405, -0.11736219584068681, 0.15738860921521472, -0.021430171936888762, -0.349119067693358, 0.6823263675252901, -0.5553940906150691, -0.30044218100464376, -0.24702123105676305, 0.13289116060332432, 0.046927232221905577, 0.6454536545952542], [0.13084061136323985, -0.16317645382161605, -0.09820198075393126, -0.37330317219674014, -0.15780998958652084, -0.07453450244931821, -0.1460837817559719, 0.2955827576963626, 0.07451533806729603, 0.308208383502182, -0.0176635715734045, -0.3179293671109089, 0.2324924497313971, -0.2908180959246479, 0.586397756794412, 0.279234531450938, -0.3050359312946199, -0.27528022333309615, -0.08020759785539816, -0.14192919061181147, 0.288833139152287, -0.01971668104423674, 0.09829631587021585, -0.06463175719529894, -0.0521602963369498, 0.43527190481906247, 0.020052972973211628], [0.3853967715296159, 0.043770039238258944, 0.3505130358282057, 0.24540904119813833, 0.18032375190095767, 0.4755231969891955, -0.5858088147345214, -0.14997464657220316, -0.08325487830180744, -0.5778668309800572, 0.15898440006191192, 0.2639165058802218, 0.4602247817267435, -0.5667361783827072, 0.4942484438119488, 0.690290128009857, 0.24699109840682115, 0.05802695019578807, -0.2070127649819984, -0.1741954665559727, -0.07703211870658049, -0.11019517804866577, 0.07202858066114563, -0.5891717908112344, 0.23493113701628665, 0.37610050540117, -0.29181425375879666], [-0.0816431952202585, 0.13974299928288547, -0.10277343727819595, 0.05513804921607452, 0.08282618346191792, 0.028669215309978773, -0.9539256389043246, 0.8640337632909598, 0.4763605584233839, 0.37705245070119503, -0.16052502500542096, 0.2727316338884942, -0.5108638650239672, 0.20665428668245933, 0.7787373582551941, 1.2476822803570673, 0.21014678480486348, 0.35532597143963457, -0.3326394155124916, -0.17012888926033415, -0.6990288122632317, 0.17031491824007478, -0.5449156862396111, 0.1887990164242858, 0.35563763499908485, -0.9688777358313689, 0.10051992311629646], [0.12018818467114435, -0.18817328052119833, -0.5344011744736269, -0.05297284628204405, 0.4654265196872749, -0.024192543273408904, 0.08069911453629272, 0.028306656097214042, 0.00206267559334845, 0.1642484379234794, 0.6461280892571903, -0.23295865852361802, -0.49275275387675305, 0.27375009714750936, -0.14577275333778936, -0.12901924439540177, -0.34647586418390547, -0.04870819174143022, -0.09460650057149637, 0.13329285990416226, -0.10255815806549687, -0.39431329807923987, 0.13970626660607915, -0.017208454092039745, -0.5089636095057286, -0.08071586662682231, 0.21106819158498702], [0.3727718302129536, -1.7895576872963321, -1.1683567485168476, 0.11891789902809445, -0.44820467889768084, 0.5870077735590054, 0.10559956444745354, -1.1566924510629584, -0.2884145336692352, -0.027891371246825072, -0.932987348716735, 0.3434476702533119, -0.06031096348914584, -0.09031557745177542, -0.6862886223894507, -1.1308927912136013, -0.7161648214749324, -0.5700949416964352, 0.6994009574797985, 0.08506712800349668, -0.3142556542132187, -0.1422427515987214, 0.2802985416959212, 0.7197554644141075, 0.43360773340051495, -2.7663792045746756, 0.338046403866721], [-0.3856301968142855, 0.0036049660879948773, 0.1544989413212314, 0.3734288507532952, -0.04108444251531603, -0.025611492285261727, -0.18449705291246465, 0.10730326032864561, -0.32545629127039766, 0.0956818948106136, 0.10060850017378181, 0.4538247441596626, -0.10467101346346401, 0.06643829547083023, 0.057593116094299845, -0.05245761452652981, -0.24513897818535343, -0.15307281956236884, -0.006087108997007443, 0.15844547964035655, 0.3041578637216533, -0.22551583422130625, 0.07034288478217744, 0.16048882295909195, 0.21731473692658812, 0.07194082469957912, 0.06366322445292043], [-0.06951737802568822, -0.09643995007182744, -0.28559268084570216, -1.445739124903272, 0.15334375939717912, -0.5414207599798376, -0.15639308569472268, 0.1603935257058174, 0.07033227344873694, -0.029929018218452633, 0.27958162804437725, -0.03172425196794958, 0.40800560445165196, 0.2621449680297699, 0.2505230734871323, 0.3496942639559956, 0.24023035847855065, -0.37156542971662415, -0.14737897476987977, -0.5792607998824936, -0.04168294020764862, -0.47171087626782326, 0.08830613675833159, -0.22468364556180517, -0.3098344780472622, -0.14047816411411382, -0.2506096973796509], [-1.4666259661176004, 0.6485123813061803, -0.050005268778531065, -0.07343074825611058, 0.2720515990173887, -0.007985774773520266, 0.2892526567690848, -0.42341588808267394, -0.04155424614230023, 0.4016965095823499, 0.23071655843804312, 0.16076794422396404, -0.3037643564760059, -0.6396074418013566, 0.7084513682193707, 0.49412484425764985, -0.2169514969720764, 0.15197617840092237, -0.00763886236960494, -0.33988836207349354, 0.028403186998000346, -0.4620405073845555, 0.20928192174536794, -0.5772712922619874, 0.3036161640840506, -0.5962055685518634, 0.06851467981400199], [0.5121605625307069, -0.3579259614180255, 0.5242608544134831, 0.015044737084467937, 0.3679167501085718, 0.2628699847425455, -0.5013977636362124, -0.21298200617816332, 0.0887404821801656, -0.4852589790960103, -0.2964964413104584, 0.14674949950975247, -0.24567327522841625, 0.11069632205435216, -0.03869923174149344, -0.1598100764699294, -0.48882980738929416, -0.3713096829530987, -0.1432456484153164, -0.2748653497231906, -0.14721262359366258, -0.15783626207155008, 0.19320289050719458, 0.5353336194106523, 0.4605659174216957, 0.5664348005793891, 0.19112032675958995], [0.007876660733710229, -0.27276065242286796, -0.248908686370968, -0.0994444933829848, 0.2579282774498241, -0.12010630361200124, 0.006329347051068039, 0.9383524927055139, 0.28177787752296696, 0.7991387396548228, 0.09115948482288658, -0.6512032806656454, -0.43453272473499094, -0.19605810237920795, -0.35625893633086525, -0.11217396129153566, -6.154791734910723e-05, 0.6107786464667845, -0.4498042407231875, -0.2097076442471252, -0.25744730850708347, -0.2650282153655316, -0.31024400397344437, -0.3089602829406099, -0.5059776466792906, -0.24377577593018593, -0.09402427115153733]], "biases": [-0.7125494471552032, 0.37859832735650506, -0.6574700332334069, -0.6265531120603532, 0.2623707575633771, 0.0626016957144662, -0.11510839432994108, -0.018565525103081553, -0.27765751333958083, -0.379715266585839, 0.01135627307123515, -0.2628132938346285, -0.19896742114323593, -0.5442029107595042, -0.08077330260520177, 0.1353850255302702, -0.15709045585717765, -0.1344224644679245, -0.3683969690595039, 0.10073307138708716, -0.37780307569089655, -0.3615721891804839, 0.06462323834682275, -0.18767652899981674, -0.306301217828228, 0.017486522162720182, 0.47694075577063494, -0.02646277282484318, -0.2105418178486418, -0.36958242834657146, -0.3688044240554673, -0.3644769101651837], "activation": "relu"}, {"input_size": 32, "output_size": 16, "weights": [[-0.6256148738196261, -0.8359635116483485, 0.05336094746134333, -0.37927637834094113, -0.7802819288392627, 0.14861953829811977, 0.24771368787161013, -0.33512635419564357, 0.09245691256995625, -0.1267014456783664, 0.03587263424559394, 0.14577531373082725, -0.2804074872351699, 0.06031529526248328, 0.23485004999042966, 0.05851188860636264, 1.1788848648942927, 0.30339158460003224, -0.4053373114034428, -0.13996414196199544, -0.10109828443126546, -0.10712044758609061, 0.4389534612634907, -0.02005243030503106, -0.42464190446409356, -0.041761393662775925, 0.8756182410640011, 0.13545271130488237, 0.7243617883553123, -0.14146881767805908, 0.1915356475908737, -0.16572176199478922], [-0.27856824437924954, -0.4208702961154282, -0.06114025831463352, -0.16539022483207458, -0.2626624272635797, -0.14886733869845384, -0.3554939408676357, -0.13356384148630257, 0.26006933465865073, -0.30704609906242775, 0.20028487916478904, 0.22935168085672983, -0.24073098689854774, 0.1417747525262124, 0.21283685731666732, -0.6247419264513456, 0.08705341261310853, 0.25679236799735555, -0.16636756082114776, 0.42302198362795124, -0.43484833178668914, 0.3235954013133659, 0.06236336946371679, -0.22568594104397638, -0.011288201111783839, -0.3756255656819183, 0.09796403859368903, 0.14245579736710917, 0.28846294492569263, 0.356393687546656, -0.1676181849242238, 0.12113574744689633], [0.0681799147410112, -0.6187252088689755, 0.15673943499105233, 0.3402183710659705, 0.36377711508303595, 0.2980993420981842, 0.1287529520517512, -0.8971425594358274, -0.005158747395096693, -0.15343133347918414, 0.07264353680605087, 0.4532735630037999, -0.5243087047806237, -0.48068191458781206, -0.12301696476421371, 0.5477027094659478, -0.19950265464027495, -0.30052353335200244, -0.062045307495913485, 0.38632269426355803, 0.27277536284331677, -0.1940448048656326, 0.33207652925996906, 0.297764505010012, -0.07568185463182377, -0.2768109553704203, -0.202194553111186, -0.11219560863438355, -0.24430627625532766, 0.3564393881238563, 0.005322813656474685, 0.24514013783401248], [0.5992401052308827, 0.06051662130884032, 0.2892833524584011, -0.5248301929264381, -0.12908857485923075, -0.133828124067489, -0.017655727320648705, -0.3837091166068283, -0.5244850835669599, -0.22683619097424165, -0.35119765170180084, -0.4715454202775503, -0.4199598269634515, 0.14596190015156715, 0.2054265047829847, -0.5797727032200541, -0.26038868715943225, -0.5560444678960718, 0.7013559132277148, -0.3018889990389271, -0.19294430330475548, 0.7985908266995428, 0.3154348043186978, -0.030966681625393015, -0.6495608924194679, -0.31853290767785797, -2.1615053882855704, -0.08797409712219824, -0.504194079022613, 0.6290117848983364, 0.3262832903696016, 0.3027478840887188], [-0.34283695333750847, -0.8563908734830645, 0.0016377802619527418, -0.10673325141532686, -0.12483461003605292, -0.3786186599419879, -0.5845606355275195, 0.4392271750173135, 0.6483259067521596, 0.2810843671355587, 0.05017567678516639, -0.4494762569463132, 0.10574290786292011, 0.9554421106558774, -0.28354631461192925, -0.1589397702576348, 0.15585658598188576, 0.2846621733158878, 0.5098466633236162, 0.4866918013054115, -0.01456333342841181, 0.11069339506820478, -0.2669821741981574, -0.03454981803910601, 0.08361840336742662, 0.2710206066103071, -0.8333377848217157, -0.17686050767593883, 0.05740123789195427, -0.38772969711442734, 0.2777962193305498, 0.4457308293088447], [0.08762519673458749, -0.03964610068150834, -0.17795978948400157, 0.08007462877971638, -0.5385923380140124, 0.21399252856122916, -0.486263766696612, -0.1662986273424225, -0.0749048464283078, -0.2433616532236511, 0.17018045861943648, -0.20176465177086447, -0.5029792230563064, -0.1364481365988622, 0.20046377018034006, 0.4391847728933161, -0.020710601753671194, 0.18806911961875247, 0.19197563967707534, 0.26902667894163185, 0.04340805023111, 0.309360202817699, -0.07227555378524667, 0.35834970386728443, 0.2884008382524281, -0.29107002356002604, 0.09352677877116447, 0.24689273026333178, -0.3995460505852347, -0.21993988573789414, 0.10810780774723201, 0.16209860040548285], [-0.16185732400203948, -0.2567507937123807, -0.13249267761714092, 0.1777349437441127, 0.5450911579924427, 0.09425997227395252, -0.1685428202659172, 0.083478011054464, 0.23929857136066518, 0.1454038993247493, -0.22268352878477024, -0.48600656544933296, -0.07351126166682453, -0.1245302983089584, 0.44247919853431134, -0.190639073410076, 0.12140784208696623, -0.4586334214867785, 0.42323670348081677, -0.3095351458239742, -0.02142145630612438, -0.068372486761164, 0.023242057794643025, -0.013375200497625578, -0.3839671245546255, 0.14762595995805222, 0.11077828717562736, -0.02629246419463363, -0.22191089149794202, 0.00869287003179218, -0.03429796114471512, -0.014915120994607173], [-0.2453741725281515, 0.20567811373531766, -0.05533981380257518, -0.016312724432082287, -0.5834722018253631, 0.1631075629698838, -0.35549856869373253, -0.013108893434214171, -0.5267949593081181, 0.5211697194127316, -0.45035611630259376, -0.03803543523237981, -0.32589504200900227, -0.327414329359573, -0.4597066351703441, 0.45107497763203824, 0.6889075883459552, -0.05350684265247837, 0.25580910192069, -0.04300134566807385, -0.28211483997098463, 0.44867151941793176, 0.17360509983931932, -0.3038868156275894, -0.0404439191910475, -0.011461170217301779, -0.11871682990100436, -0.03339504409327679, -0.20720069467940191, 0.002004850684913719, -0.12259274063349584, -0.16505090251215854], [-0.16197154135080355, 0.4151549314675272, 0.5255349436975285, 0.10884741769368254, -0.3102574638160925, 0.07538292768288815, -1.2884370060877108, 0.2842814569663978, -0.6220887911794694, -0.11946941772077409, 0.09215478035416456, -0.37047921115599336, -0.12045392409860006, -0.8177989810821424, -0.22999732484279972, -0.45449110890947747, -0.420979495689145, -0.03882074302312585, -0.20645981691734136, -0.03588782052095496, -0.1570391846830289, -0.3836939859887246, 0.2571027346433095, -0.14209741371444523, -0.6559203809087756, 0.031002107896128697, 0.2424398180943552, -0.7801536092166083, -0.20199043163918537, -0.3904702579353721, -0.3040289204692177, -0.27296264600804265], [0.27766793104795345, -0.0797527099628343, -0.5020360024037951, 0.052694931084478334, -0.37927443871004146, 0.2824086796751723, -0.27389851094777296, 0.05947807960799584, -0.17020228061249956, 0.5597627909995085, -0.21160626435891094, -0.08749797566819843, -0.17832414961538906, -0.02719317209973955, 0.15100767191049694, -0.2473855850025783, -0.25252312118271314, 0.5379933706746235, -0.33065219433985127, -0.19857316169446354, 0.28739547479608485, -0.07836862256700772, -0.2763760217790485, 0.5032775098963461, -0.21008755503188636, -0.07713328975721072, -0.8789580162371228, 0.2566578925625092, 0.21265590229814513, 0.07946829966347244, -0.018303193159319876, -0.34819434535855287], [0.36372540857376134, 0.223058514265942, 0.5746280893293999, 0.8401376181056872, -0.9842233674366487, 0.04192225956005503, -0.257596908011305, -0.3310667422378075, 0.12264937843405554, 0.40083547737470715, 0.15194910396983125, 0.2924876327463881, 0.039874485353599276, -0.03403276728925647, 0.5059434308252033, 0.060386052928602815, 0.6102382469986962, -0.18030108905660194, 0.2100135679783644, 0.019741267270935767, 0.34627266296357134, -0.10420167954426733, -0.04847809648350965, 0.4584768050926098, -0.21386124267297313, -0.12116589823395713, -0.8289335356809916, -0.09787821125761983, 0.8100628977202171, -0.027320597020120123, 0.2738874148329626, 0.10008086691086565], [-0.27147717596632964, -2.008481757276529, -0.33693245079943157, -0.07928507380581044, 0.01424654178876331, -0.18907725045421472, -0.510083765481026, -0.14540966943037023, 0.1239090716267011, 0.025422380136641214, 0.4841652796720924, -0.15611548539084813, -0.11493587181793426, 0.6492453339443629, -0.3571446931445536, 0.006395377082314151, -0.40697401791538984, -0.11025666927721241, -0.04719583632174608, -0.5345861224075115, 0.281297667236624, 1.2583250712451817, -0.06742018528721161, -0.21402862272237808, 0.46532796796837, -0.25018428924281466, -0.1461120809966391, 0.274185854384481, 0.17417692660637968, -0.5092035258824641, -0.10236543394769694, 0.4738256985912642], [0.11418670321387792, 0.14577689084885515, -0.5742985677586988, 0.1078097387043855, -0.33017572841746823, 0.07588045281453815, -0.22493257953127463, 0.13090964086824752, -0.38021086741975924, 0.018587073247401525, 0.13284956749927673, 0.1520872648723049, 0.2794506975777124, 0.00685616454488634, -0.15608048657372417, 0.33390020144450133, 0.09855325319386088, 0.024733111488257395, 0.10507620382333269, -0.37739008540209623, -0.3475683221076591, -0.23251501250595893, -0.30521337572475454, 0.2728109836355459, -0.4492872895479477, -0.04174247225275328, -0.17797521203981784, -0.229236939625387, -0.07365361072188502, -0.28911125265685744, -0.35244729259739443, -0.3396364486826045], [0.5005164808149909, -0.08493083452826414, -0.23450648645462366, 0.6449384097540397, 0.18606181726333024, -0.37446548953113223, 0.37169632528136876, 0.6577240584117813, -0.052722698791278305, -0.09387931919552729, 0.127419511832199, 0.4341329321929514, 0.33773000296111894, 0.074609534616294, -0.10255237105689749, 0.31799667461511805, 0.13675260635088404, -0.0653228618796133, -0.21392065926998532, 0.07496144876709603, 0.2903148710959792, 0.6662797818728442, -0.12700926147282957, 0.036114738438710034, 0.372885388279984, -0.3346079643692392, -0.38801554888946077, 0.055299816237291015, 0.28895101521492284, 0.3030796458664191, 0.2971024545213304, -0.8451204757959924], [-0.40633482461920645, -0.08395208731358222, 0.4926335129923768, -0.5294643118562612, -0.06165091167129557, -0.10109808768511522, -0.1231002656240646, 0.1150054309925987, 0.1241130416189348, 0.16897358460794917, 0.1916586604275123, 0.09291490071900192, -0.4418523470836782, 0.24958778243612728, -0.007218054842853274, -0.1272473170499443, -0.3396388749177159, 1.042120573740936, 0.23121212249108927, -0.3295769344306803, -0.3704534047997826, 0.05452286204600149, 0.32620411180959163, -0.1400223019097419, -0.4636917201304422, -0.3242756341543889, 0.32905482607630504, -0.1426557883852969, -0.5319126170377544, 0.22363399181157317, 0.21492448866405883, -0.5259466887804837], [0.4494377680232398, -0.01732134400417414, 0.7732144791648927, 0.018899328173091885, -0.09069214908564516, -0.34965493005698806, 0.935250025441062, 0.4836310815487227, 0.4322268747890542, 0.3549388048048641, 0.15539334931904014, 0.7252072451881709, 0.46428441437906554, 0.9632244442792894, 0.4560493387817336, 0.22918453068618277, 0.5670007654533518, 0.8758025463613621, 0.3613251903015309, -0.4629430227933663, 0.3421472493932099, 0.32899545357403176, -0.13056549445001742, 0.6179760762980177, 0.6626853812045499, -0.10217777661703877, -0.29912161087358174, -0.17075887879332355, 0.31318899632650443, 0.4021767961727042, 0.16701228744588237, -0.373628954284328]], "biases": [-0.2523266196440369, -0.07498493782675746, -0.30683108101002177, 0.3984580159192042, 0.28459417100996504, 0.4575880485624771, 0.29757739248414994, 0.13308939572632564, 0.43451072519957945, 0.3829296175856229, 0.27145962924123, 0.6029145627380488, -0.15284650589301943, 0.026994891285200082, 0.09288002364412325, 0.738325080393098], "activation": "relu"}, {"input_size": 16, "output_size": 7, "weights": [[0.07929923446853107, 0.5784821643276654, 0.6024494749792938, 1.2352392771871996, 0.6235663562908572, -0.5658459278801279, -0.7439667569750549, -0.5863720689967058, -0.8914710757825002, 0.6820250476396719, 0.25702984690563846, 0.2807604745572315, 0.5443113983067934, 0.7022520841854082, -0.1077475579967655, 0.9800059818149733], [1.772845191852633, -0.07103896309560039, -0.11404128644336793, 0.845080157643048, 0.3593463205594959, 0.34516086445557015, -0.398245660310824, -0.2911800164205807, -0.4404994328962782, -0.17124717247583884, 1.0325066358735144, 0.5092947909416221, -0.5307036501505984, 0.48796475417474616, -0.31087813108480356, 1.010214231127237], [0.12763687752480746, 0.1118229487439143, 0.9695671490646407, 0.7486549906711816, 1.0727741177070682, 0.5173023893086788, -0.15417043690307797, -0.38049160168870527, -0.8459161610677919, 0.6715618147661098, 0.6497972300570553, 1.891730579740741, 0.15423746149844406, 0.6365703195019281, 0.032505630899345196, 0.48545693989010585], [0.6372725388715897, -0.03388089386787459, -0.052659253648771755, 0.5896403408917725, 0.3124355931050356, -0.1992140154681201, 0.1052776821817495, -0.14860426503658483, -0.14897750327993392, 0.9118391662185492, 0.4903964432639446, 0.39646180368188155, -0.11977547785190064, 0.5938240991798114, 1.0809514134122826, 1.1315730665198258], [0.5507748922034902, 0.1463440689411682, 0.16109913328978126, 1.2625099124243448, 0.8493701150650722, -0.13302161900354334, -0.1899182478315507, 0.13155570986057685, -0.3054474438331145, 0.08645363681674247, 0.8556511055894188, 0.21015103933946896, -0.23746141177865654, 0.21523158984217483, 0.46253086853536146, 1.1036165029006346], [0.45841804275209, 0.15727557168433043, 0.1343365872224024, 0.6707375383977467, 0.37598823353184824, 0.25526965080964087, 0.1257144174673844, -0.20461879369788682, -0.40414014968722406, 0.466193896696915, 0.38468526413593507, 0.8932739597142401, 0.9445311897506298, 0.5623325230476944, 0.4140905812492173, 0.6299272519963989], [0.3011856011369592, 0.4982849504201029, 0.002990458724827951, 0.7128152566127028, 0.40652992835153795, 0.25699259507887534, 0.13363203161532902, -0.2252560439042077, -0.3832556106991891, 0.08767481198272789, 0.7580720414242647, 0.39866794996586175, 0.033845132501759176, 0.6608425762556223, 0.2848237197979659, 0.8885313101004025]], "biases": [1.3142518786897333, 0.5408761459058866, 0.861868120479391, 0.24166579918324355, 0.4607935231902255, 0.4029410890007409, 0.3327259527267157], "activation": "linear"}], "meta": {"game": "delveforge", "sensors": 27, "actions": 7, "cls": "Warrior", "bestDepth": 1, "trainedEpisodes": 900, "evalScore": 0.6}}